booster[0]:
0:[register_time_diff_sparse<1.5] yes=1,no=2,missing=1
	1:[mile_diff_sparse<1.5] yes=7,no=8,missing=7
		7:leaf=-0.00499999989
		8:[register_time_diff_sparse<0.25] yes=11,no=12,missing=11
			11:leaf=-0.0029453442
			12:leaf=0.00167593872
	2:[mile_diff_rate_sparse<0.75] yes=3,no=4,missing=3
		3:[fuel_typep1<1] yes=5,no=6,missing=5
			5:leaf=-0.00499999989
			6:leaf=-0.000793285028
		4:[licensed_city_diff_sparse<0.25] yes=9,no=10,missing=9
			9:leaf=0.0015236818
			10:leaf=0.00499999989
booster[1]:
0:[register_time_diff_sparse<1.5] yes=1,no=2,missing=1
	1:[mile_diff_sparse<1.5] yes=7,no=8,missing=7
		7:leaf=-0.00499999989
		8:[register_time_diff_sparse<0.25] yes=9,no=10,missing=9
			9:leaf=-0.00298548955
			10:leaf=0.00179462112
	2:[mile_diff_rate_sparse<0.75] yes=3,no=4,missing=3
		3:[fuel_typep1<1] yes=5,no=6,missing=5
			5:leaf=-0.00499999989
			6:leaf=-0.0011504452
		4:[licensed_city_diff_sparse<0.25] yes=11,no=12,missing=11
			11:leaf=0.00262248679
			12:leaf=0.00499999989
booster[2]:
0:[register_time_diff_sparse<1.5] yes=1,no=2,missing=1
	1:[mile_diff_sparse<1.5] yes=5,no=6,missing=5
		5:leaf=-0.00499999989
		6:[register_time_diff_sparse<0.25] yes=9,no=10,missing=9
			9:leaf=-0.00357196829
			10:leaf=0.00253496878
	2:[mile_diff_rate_sparse<0.75] yes=3,no=4,missing=3
		3:[fuel_typep1<1] yes=7,no=8,missing=7
			7:leaf=-0.00499999989
			8:leaf=-0.00153131189
		4:[licensed_city_diff_sparse<0.25] yes=11,no=12,missing=11
			11:leaf=0.00161912909
			12:leaf=0.00499999989
booster[3]:
0:[register_time_diff_sparse<1.5] yes=1,no=2,missing=1
	1:[mile_diff_sparse<1.5] yes=7,no=8,missing=7
		7:leaf=-0.00499999989
		8:[register_time_diff_sparse<0.25] yes=9,no=10,missing=9
			9:leaf=-0.00392388878
			10:leaf=0.0026034913
	2:[mile_diff_rate_sparse<0.75] yes=3,no=4,missing=3
		3:[fuel_typep1<1] yes=5,no=6,missing=5
			5:leaf=-0.00499999989
			6:leaf=-0.000685072388
		4:[licensed_city_diff_sparse<0.25] yes=11,no=12,missing=11
			11:leaf=0.00234992895
			12:leaf=0.00499999989
booster[4]:
0:[register_time_diff_sparse<1.5] yes=1,no=2,missing=1
	1:[mile_diff_sparse<1.5] yes=7,no=8,missing=7
		7:leaf=-0.00499999989
		8:[register_time_diff_sparse<0.25] yes=11,no=12,missing=11
			11:leaf=-0.0026253562
			12:leaf=0.00233695959
	2:[mile_diff_rate_sparse<0.75] yes=3,no=4,missing=3
		3:[fuel_typep1<1] yes=5,no=6,missing=5
			5:leaf=-0.00499999989
			6:leaf=-0.00043044152
		4:[licensed_city_diff_sparse<0.25] yes=9,no=10,missing=9
			9:leaf=0.00177310221
			10:leaf=0.00499999989
booster[5]:
0:[register_time_diff_sparse<1.5] yes=1,no=2,missing=1
	1:[mile_diff_sparse<1.5] yes=5,no=6,missing=5
		5:leaf=-0.00499999989
		6:[register_time_diff_sparse<0.25] yes=11,no=12,missing=11
			11:leaf=-0.00261574262
			12:leaf=0.00232763682
	2:[mile_diff_rate_sparse<0.75] yes=3,no=4,missing=3
		3:[displacement_standard1<1] yes=7,no=8,missing=7
			7:leaf=-0.00499999989
			8:leaf=-0.00162250723
		4:[licensed_city_diff_sparse<0.25] yes=9,no=10,missing=9
			9:leaf=0.00184291636
			10:leaf=0.00499999989
booster[6]:
0:[register_time_diff_sparse<1.5] yes=1,no=2,missing=1
	1:[mile_diff_rate_sparse<1.5] yes=7,no=8,missing=7
		7:leaf=-0.00499999989
		8:[register_time_diff_sparse<0.25] yes=11,no=12,missing=11
			11:leaf=-0.00292696012
			12:leaf=0.00204401626
	2:[mile_diff_rate_sparse<0.75] yes=3,no=4,missing=3
		3:[fuel_typep1<1] yes=5,no=6,missing=5
			5:leaf=-0.00499999989
			6:leaf=-0.000830497069
		4:[licensed_city_diff_sparse<0.25] yes=9,no=10,missing=9
			9:leaf=0.00175718614
			10:leaf=0.00499999989
booster[7]:
0:[fuel_typep1<1] yes=1,no=2,missing=1
	1:[mile_diff_sparse<1.5] yes=3,no=4,missing=3
		3:leaf=-0.00499999989
		4:leaf=0.00499999989
	2:[mile_diff_rate_sparse<0.75] yes=5,no=6,missing=5
		5:leaf=-0.00499999989
		6:[licensed_city_diff_sparse<0.25] yes=7,no=8,missing=7
			7:leaf=-0.00166162208
			8:leaf=0.00499999989
booster[8]:
0:[register_time_diff_sparse<1.5] yes=1,no=2,missing=1
	1:[mile_diff_sparse<1.5] yes=7,no=8,missing=7
		7:leaf=-0.00499999989
		8:[register_time_diff_sparse<0.25] yes=9,no=10,missing=9
			9:leaf=-0.00464245863
			10:leaf=0.00229145261
	2:[mile_diff_rate_sparse<0.75] yes=3,no=4,missing=3
		3:[displacement_standard1<1] yes=5,no=6,missing=5
			5:leaf=-0.00499999989
			6:leaf=-0.00130713359
		4:[licensed_city_diff_sparse<0.25] yes=11,no=12,missing=11
			11:leaf=0.00147220946
			12:leaf=0.00499999989
booster[9]:
0:[register_time_diff_sparse<1.5] yes=1,no=2,missing=1
	1:[mile_diff_sparse<1.5] yes=7,no=8,missing=7
		7:leaf=-0.00499999989
		8:[register_time_diff_sparse<0.25] yes=11,no=12,missing=11
			11:leaf=-0.00291596795
			12:leaf=0.00186579104
	2:[mile_diff_sparse<0.75] yes=3,no=4,missing=3
		3:[fuel_typep1<1] yes=9,no=10,missing=9
			9:leaf=-0.00499999989
			10:leaf=-0.000125364342
		4:[licensed_city_diff_sparse<0.25] yes=5,no=6,missing=5
			5:leaf=0.000333764852
			6:leaf=0.00499999989
booster[10]:
0:[register_time_diff_sparse<1.5] yes=1,no=2,missing=1
	1:[mile_diff_sparse<1.5] yes=5,no=6,missing=5
		5:leaf=-0.00499999989
		6:[register_time_diff_sparse<0.25] yes=9,no=10,missing=9
			9:leaf=-0.00355207175
			10:leaf=0.00253042253
	2:[mile_diff_rate_sparse<0.75] yes=3,no=4,missing=3
		3:[fuel_typep1<1] yes=7,no=8,missing=7
			7:leaf=-0.00499999989
			8:leaf=-0.00117208983
		4:[licensed_city_diff_sparse<0.25] yes=11,no=12,missing=11
			11:leaf=0.00191328523
			12:leaf=0.00499999989
booster[11]:
0:[register_time_diff_sparse<1.5] yes=1,no=2,missing=1
	1:[mile_diff_sparse<1.5] yes=5,no=6,missing=5
		5:leaf=-0.00499999989
		6:[register_time_diff_sparse<0.25] yes=11,no=12,missing=11
			11:leaf=-0.00257162564
			12:leaf=0.00271158339
	2:[mile_diff_rate_sparse<0.75] yes=3,no=4,missing=3
		3:[fuel_typep2<1] yes=7,no=8,missing=7
			7:leaf=-0.00499999989
			8:leaf=-0.000983681763
		4:[licensed_city_diff_sparse<0.25] yes=9,no=10,missing=9
			9:leaf=0.00145603879
			10:leaf=0.00499999989
booster[12]:
0:[fuel_typep1<1] yes=1,no=2,missing=1
	1:[mile_diff_sparse<1.5] yes=3,no=4,missing=3
		3:leaf=-0.00499999989
		4:leaf=0.00499999989
	2:[mile_diff_rate_sparse<0.75] yes=5,no=6,missing=5
		5:leaf=-0.00499999989
		6:[licensed_city_diff_sparse<0.25] yes=7,no=8,missing=7
			7:leaf=-0.00168310245
			8:leaf=0.00499999989
booster[13]:
0:[register_time_diff_sparse<1.5] yes=1,no=2,missing=1
	1:[mile_diff_sparse<1.5] yes=7,no=8,missing=7
		7:leaf=-0.00499999989
		8:[register_time_diff_sparse<0.25] yes=9,no=10,missing=9
			9:leaf=-0.0028995329
			10:leaf=0.00134847814
	2:[mile_diff_rate_sparse<0.75] yes=3,no=4,missing=3
		3:[fuel_typep1<1] yes=5,no=6,missing=5
			5:leaf=-0.00499999989
			6:leaf=-0.00109923177
		4:[licensed_city_diff_sparse<0.25] yes=11,no=12,missing=11
			11:leaf=0.00240694778
			12:leaf=0.00499999989
booster[14]:
0:[register_time_diff_sparse<1.5] yes=1,no=2,missing=1
	1:[mile_diff_sparse<1.5] yes=5,no=6,missing=5
		5:leaf=-0.00499999989
		6:[register_time_diff_sparse<0.25] yes=11,no=12,missing=11
			11:leaf=-0.00221711583
			12:leaf=0.002230037
	2:[mile_diff_sparse<0.75] yes=3,no=4,missing=3
		3:[fuel_typep2<1] yes=9,no=10,missing=9
			9:leaf=-0.00499999989
			10:leaf=-0.00120545807
		4:[licensed_city_diff_sparse<0.25] yes=7,no=8,missing=7
			7:leaf=0.00108075968
			8:leaf=0.00499999989
booster[15]:
0:[register_time_diff_sparse<1.5] yes=1,no=2,missing=1
	1:[mile_diff_sparse<1.5] yes=5,no=6,missing=5
		5:leaf=-0.00499999989
		6:[register_time_diff_sparse<0.25] yes=9,no=10,missing=9
			9:leaf=-0.00288058375
			10:leaf=0.00194776745
	2:[mile_diff_rate_sparse<0.75] yes=3,no=4,missing=3
		3:[fuel_typep1<1] yes=7,no=8,missing=7
			7:leaf=-0.00499999989
			8:leaf=-0.001315812
		4:[licensed_city_diff_sparse<0.25] yes=11,no=12,missing=11
			11:leaf=0.00213627401
			12:leaf=0.00499999989
booster[16]:
0:[register_time_diff_sparse<1.5] yes=1,no=2,missing=1
	1:[mile_diff_sparse<1.5] yes=5,no=6,missing=5
		5:leaf=-0.00499999989
		6:[register_time_diff_sparse<0.25] yes=11,no=12,missing=11
			11:leaf=-0.00138465001
			12:leaf=0.00179621065
	2:[mile_diff_rate_sparse<0.75] yes=3,no=4,missing=3
		3:[fuel_typep1<1] yes=7,no=8,missing=7
			7:leaf=-0.00499999989
			8:leaf=-0.000647012552
		4:[licensed_city_diff_sparse<0.25] yes=9,no=10,missing=9
			9:leaf=0.00188106264
			10:leaf=0.00499999989
booster[17]:
0:[register_time_diff_sparse<1.5] yes=1,no=2,missing=1
	1:[mile_diff_sparse<1.5] yes=7,no=8,missing=7
		7:leaf=-0.00499999989
		8:[register_time_diff_sparse<0.25] yes=9,no=10,missing=9
			9:leaf=-0.00254778517
			10:leaf=0.00238695042
	2:[mile_diff_rate_sparse<0.75] yes=3,no=4,missing=3
		3:[fuel_typep1<1] yes=5,no=6,missing=5
			5:leaf=-0.00499999989
			6:leaf=-0.000332285155
		4:[licensed_city_diff_sparse<0.25] yes=11,no=12,missing=11
			11:leaf=0.00221555447
			12:leaf=0.00499999989
booster[18]:
0:[register_time_diff_sparse<1.5] yes=1,no=2,missing=1
	1:[mile_diff_sparse<1.5] yes=7,no=8,missing=7
		7:leaf=-0.00499999989
		8:[register_time_diff_sparse<0.25] yes=11,no=12,missing=11
			11:leaf=-0.00281090988
			12:leaf=0.00177960901
	2:[mile_diff_sparse<0.75] yes=3,no=4,missing=3
		3:[fuel_typep1<1] yes=9,no=10,missing=9
			9:leaf=-0.00499999989
			10:leaf=-0.00137737207
		4:[licensed_city_diff_sparse<0.25] yes=5,no=6,missing=5
			5:leaf=0.000661509112
			6:leaf=0.00499999989
booster[19]:
0:[register_time_diff_sparse<1.5] yes=1,no=2,missing=1
	1:[mile_diff_sparse<1.5] yes=7,no=8,missing=7
		7:leaf=-0.00499999989
		8:[register_time_diff_sparse<0.25] yes=11,no=12,missing=11
			11:leaf=-0.00313835382
			12:leaf=0.0011935255
	2:[mile_diff_rate_sparse<0.75] yes=3,no=4,missing=3
		3:[fuel_typep1<1] yes=5,no=6,missing=5
			5:leaf=-0.00499999989
			6:leaf=-0.000671443937
		4:[licensed_city_diff_sparse<0.25] yes=9,no=10,missing=9
			9:leaf=0.00177522982
			10:leaf=0.00499999989
booster[20]:
0:[register_time_diff_sparse<1.5] yes=1,no=2,missing=1
	1:[mile_diff_sparse<1.5] yes=7,no=8,missing=7
		7:leaf=-0.00499999989
		8:[register_time_diff_sparse<0.25] yes=9,no=10,missing=9
			9:leaf=-0.00283343601
			10:leaf=0.00148941553
	2:[mile_diff_rate_sparse<0.75] yes=3,no=4,missing=3
		3:[fuel_typep1<1] yes=5,no=6,missing=5
			5:leaf=-0.00499999989
			6:leaf=-0.000616946665
		4:[licensed_city_diff_sparse<0.25] yes=11,no=12,missing=11
			11:leaf=0.00246408978
			12:leaf=0.00499999989
booster[21]:
0:[register_time_diff_sparse<1.5] yes=1,no=2,missing=1
	1:[mile_diff_sparse<1.5] yes=5,no=6,missing=5
		5:leaf=-0.00499999989
		6:[register_time_diff_sparse<0.25] yes=11,no=12,missing=11
			11:leaf=-0.00250353361
			12:leaf=0.00262693665
	2:[mile_diff_rate_sparse<0.75] yes=3,no=4,missing=3
		3:[fuel_typep1<1] yes=7,no=8,missing=7
			7:leaf=-0.00499999989
			8:leaf=-0.00121440191
		4:[licensed_city_diff_sparse<0.25] yes=9,no=10,missing=9
			9:leaf=0.00150739751
			10:leaf=0.00499999989
booster[22]:
0:[register_time_diff_sparse<1.5] yes=1,no=2,missing=1
	1:[mile_diff_rate_sparse<1.5] yes=7,no=8,missing=7
		7:leaf=-0.00499999989
		8:[register_time_diff_sparse<0.25] yes=9,no=10,missing=9
			9:leaf=-0.00277474639
			10:leaf=0.00160241267
	2:[mile_diff_rate_sparse<0.75] yes=3,no=4,missing=3
		3:[fuel_typep1<1] yes=5,no=6,missing=5
			5:leaf=-0.00499999989
			6:leaf=-0.000509768142
		4:[licensed_city_diff_sparse<0.25] yes=11,no=12,missing=11
			11:leaf=0.00233642571
			12:leaf=0.00499999989
booster[23]:
0:[register_time_diff_sparse<1.5] yes=1,no=2,missing=1
	1:[mile_diff_sparse<1.5] yes=5,no=6,missing=5
		5:leaf=-0.00499999989
		6:[register_time_diff_sparse<0.25] yes=9,no=10,missing=9
			9:leaf=-0.00213443954
			10:leaf=0.00200465531
	2:[mile_diff_rate_sparse<0.75] yes=3,no=4,missing=3
		3:[fuel_typep1<1] yes=7,no=8,missing=7
			7:leaf=-0.00499999989
			8:leaf=-0.000879371364
		4:leaf=0.00499999989
booster[24]:
0:[displacement_standard1<1] yes=1,no=2,missing=1
	1:[mile_diff_sparse<1.5] yes=3,no=4,missing=3
		3:leaf=-0.00499999989
		4:leaf=0.00499999989
	2:[mile_diff_rate_sparse<0.75] yes=5,no=6,missing=5
		5:leaf=-0.00499999989
		6:[licensed_city_diff_sparse<1.25] yes=7,no=8,missing=7
			7:leaf=-0.00161864841
			8:leaf=0.00499999989
booster[25]:
0:[register_time_diff_sparse<1.5] yes=1,no=2,missing=1
	1:[mile_diff_sparse<1.5] yes=5,no=6,missing=5
		5:leaf=-0.00499999989
		6:[register_time_diff_sparse<0.25] yes=9,no=10,missing=9
			9:leaf=-0.00249629305
			10:leaf=0.00187034381
	2:[mile_diff_rate_sparse<0.75] yes=3,no=4,missing=3
		3:[fuel_typep1<1] yes=7,no=8,missing=7
			7:leaf=-0.00499999989
			8:leaf=-0.000912335643
		4:[licensed_city_diff_sparse<0.25] yes=11,no=12,missing=11
			11:leaf=0.00231119338
			12:leaf=0.00499999989
booster[26]:
0:[register_time_diff_sparse<1.5] yes=1,no=2,missing=1
	1:[mile_diff_sparse<1.5] yes=7,no=8,missing=7
		7:leaf=-0.00499999989
		8:[register_time_diff_sparse<0.25] yes=9,no=10,missing=9
			9:leaf=-0.0021373569
			10:leaf=0.0017170033
	2:[mile_diff_rate_sparse<0.75] yes=3,no=4,missing=3
		3:[fuel_typep1<1] yes=5,no=6,missing=5
			5:leaf=-0.00499999989
			6:leaf=-0.000319708139
		4:[licensed_city_diff_sparse<0.25] yes=11,no=12,missing=11
			11:leaf=0.00256848778
			12:leaf=0.00499999989
booster[27]:
0:[register_time_diff_sparse<1.5] yes=1,no=2,missing=1
	1:[mile_diff_sparse<1.5] yes=5,no=6,missing=5
		5:leaf=-0.00499999989
		6:[register_time_diff_sparse<0.25] yes=9,no=10,missing=9
			9:leaf=-0.00237976457
			10:leaf=0.00257728365
	2:[mile_diff_rate_sparse<0.75] yes=3,no=4,missing=3
		3:[fuel_typep1<1] yes=7,no=8,missing=7
			7:leaf=-0.00499999989
			8:leaf=-0.00117549254
		4:leaf=0.00499999989
booster[28]:
0:[register_time_diff_sparse<1.5] yes=1,no=2,missing=1
	1:[mile_diff_sparse<1.5] yes=5,no=6,missing=5
		5:leaf=-0.00499999989
		6:[register_time_diff_sparse<0.25] yes=11,no=12,missing=11
			11:leaf=-0.0017312346
			12:leaf=0.00142250233
	2:[mile_diff_rate_sparse<0.75] yes=3,no=4,missing=3
		3:[fuel_typep1<1] yes=7,no=8,missing=7
			7:leaf=-0.00499999989
			8:leaf=-0.00103820511
		4:[licensed_city_diff_sparse<0.25] yes=9,no=10,missing=9
			9:leaf=0.0018492057
			10:leaf=0.00499999989
booster[29]:
0:[register_time_diff_sparse<1.5] yes=1,no=2,missing=1
	1:[mile_diff_rate_sparse<1.5] yes=7,no=8,missing=7
		7:leaf=-0.00499999989
		8:[register_time_diff_sparse<0.25] yes=11,no=12,missing=11
			11:leaf=-0.00307431072
			12:leaf=0.000798807654
	2:[mile_diff_rate_sparse<0.75] yes=3,no=4,missing=3
		3:[displacement_standard2<3] yes=5,no=6,missing=5
			5:leaf=-0.00499999989
			6:leaf=0.000109472057
		4:[licensed_city_diff_sparse<0.25] yes=9,no=10,missing=9
			9:leaf=0.00185450236
			10:leaf=0.00499999989
booster[30]:
0:[register_time_diff_sparse<1.5] yes=1,no=2,missing=1
	1:[mile_diff_sparse<1.5] yes=5,no=6,missing=5
		5:leaf=-0.00499999989
		6:[register_time_diff_sparse<0.25] yes=11,no=12,missing=11
			11:leaf=-0.00244893157
			12:leaf=0.00183749979
	2:[mile_diff_rate_sparse<0.75] yes=3,no=4,missing=3
		3:[fuel_typep1<1] yes=7,no=8,missing=7
			7:leaf=-0.00499999989
			8:leaf=-0.000989154447
		4:[licensed_city_diff_sparse<0.25] yes=9,no=10,missing=9
			9:leaf=0.00156989403
			10:leaf=0.00499999989
booster[31]:
0:[register_time_diff_sparse<1.5] yes=1,no=2,missing=1
	1:[mile_diff_sparse<1.5] yes=5,no=6,missing=5
		5:leaf=-0.00499999989
		6:[register_time_diff_sparse<0.25] yes=11,no=12,missing=11
			11:leaf=-0.0024400698
			12:leaf=0.00255259895
	2:[mile_diff_rate_sparse<0.75] yes=3,no=4,missing=3
		3:[fuel_typep1<1] yes=7,no=8,missing=7
			7:leaf=-0.00499999989
			8:leaf=-0.00102573354
		4:[licensed_city_diff_sparse<0.25] yes=9,no=10,missing=9
			9:leaf=0.00110243831
			10:leaf=0.00499999989
booster[32]:
0:[fuel_typep1<1] yes=1,no=2,missing=1
	1:[mile_diff_sparse<1.5] yes=3,no=4,missing=3
		3:leaf=-0.00499999989
		4:leaf=0.00499999989
	2:[mile_diff_rate_sparse<0.75] yes=5,no=6,missing=5
		5:leaf=-0.00499999989
		6:[licensed_city_diff_sparse<0.25] yes=7,no=8,missing=7
			7:leaf=-0.00144513545
			8:leaf=0.00499999989
booster[33]:
0:[register_time_diff_sparse<1.5] yes=1,no=2,missing=1
	1:[mile_diff_sparse<1.5] yes=7,no=8,missing=7
		7:leaf=-0.00499999989
		8:[register_time_diff_sparse<0.25] yes=9,no=10,missing=9
			9:leaf=-0.00336766196
			10:leaf=0.0025231943
	2:[mile_diff_rate_sparse<0.75] yes=3,no=4,missing=3
		3:[fuel_typep1<1] yes=5,no=6,missing=5
			5:leaf=-0.00499999989
			6:leaf=-0.000719587726
		4:[licensed_city_diff_sparse<0.25] yes=11,no=12,missing=11
			11:leaf=0.00247570267
			12:leaf=0.00499999989
booster[34]:
0:[register_time_diff_sparse<1.5] yes=1,no=2,missing=1
	1:[mile_diff_sparse<1.5] yes=7,no=8,missing=7
		7:leaf=-0.00499999989
		8:[register_time_diff_sparse<0.25] yes=9,no=10,missing=9
			9:leaf=-0.00271595363
			10:leaf=0.00190467085
	2:[mile_diff_rate_sparse<0.75] yes=3,no=4,missing=3
		3:[fuel_typep1<1] yes=5,no=6,missing=5
			5:leaf=-0.00499999989
			6:leaf=-0.000419484364
		4:leaf=0.00499999989
booster[35]:
0:[register_time_diff_sparse<1.5] yes=1,no=2,missing=1
	1:[fuel_typep2<7] yes=9,no=10,missing=9
		9:leaf=-0.00499999989
		10:leaf=-0.00151435635
	2:[licensed_city_diff_sparse<0.25] yes=3,no=4,missing=3
		3:[displacement_standard1<3] yes=5,no=6,missing=5
			5:leaf=-0.00499999989
			6:leaf=0.00166802865
		4:[displacement_diff_sparse<0.25] yes=7,no=8,missing=7
			7:leaf=0.000859163993
			8:leaf=0.00499999989
booster[36]:
0:[register_time_diff_sparse<1.5] yes=1,no=2,missing=1
	1:[mile_diff_sparse<1.5] yes=5,no=6,missing=5
		5:leaf=-0.00499999989
		6:[register_time_diff_sparse<0.25] yes=11,no=12,missing=11
			11:leaf=-0.00240781717
			12:leaf=0.00108284713
	2:[mile_diff_sparse<0.75] yes=3,no=4,missing=3
		3:[fuel_typep1<1] yes=7,no=8,missing=7
			7:leaf=-0.00499999989
			8:leaf=-0.00105252059
		4:[licensed_city_diff_sparse<0.25] yes=9,no=10,missing=9
			9:leaf=0.00154074712
			10:leaf=0.00499999989
booster[37]:
0:[register_time_diff_sparse<1.5] yes=1,no=2,missing=1
	1:[mile_diff_sparse<1.5] yes=7,no=8,missing=7
		7:leaf=-0.00499999989
		8:[register_time_diff_sparse<0.25] yes=11,no=12,missing=11
			11:leaf=-0.00271740672
			12:leaf=0.00137616636
	2:[mile_diff_rate_sparse<0.75] yes=3,no=4,missing=3
		3:[fuel_typep1<1] yes=5,no=6,missing=5
			5:leaf=-0.00499999989
			6:leaf=-0.000425701583
		4:[licensed_city_diff_sparse<0.25] yes=9,no=10,missing=9
			9:leaf=0.00195154233
			10:leaf=0.00499999989
booster[38]:
0:[register_time_diff_sparse<1.5] yes=1,no=2,missing=1
	1:[mile_diff_sparse<1.5] yes=7,no=8,missing=7
		7:leaf=-0.00499999989
		8:[register_time_diff_sparse<0.25] yes=11,no=12,missing=11
			11:leaf=-0.00267623691
			12:leaf=0.00137012394
	2:[mile_diff_rate_sparse<0.75] yes=3,no=4,missing=3
		3:[fuel_typep1<1] yes=5,no=6,missing=5
			5:leaf=-0.00499999989
			6:leaf=-0.000875989674
		4:[licensed_city_diff_sparse<0.25] yes=9,no=10,missing=9
			9:leaf=0.00203567627
			10:leaf=0.00499999989
booster[39]:
0:[fuel_typep1<1] yes=1,no=2,missing=1
	1:[mile_diff_sparse<1.5] yes=3,no=4,missing=3
		3:leaf=-0.00499999989
		4:leaf=0.00499999989
	2:[mile_diff_rate_sparse<0.75] yes=5,no=6,missing=5
		5:leaf=-0.00499999989
		6:[licensed_city_diff_sparse<0.25] yes=7,no=8,missing=7
			7:leaf=-0.00147591054
			8:leaf=0.00499999989
booster[40]:
0:[fuel_typep1<1] yes=1,no=2,missing=1
	1:[mile_diff_sparse<1.5] yes=3,no=4,missing=3
		3:leaf=-0.00499999989
		4:leaf=0.00499999989
	2:[mile_diff_rate_sparse<0.75] yes=5,no=6,missing=5
		5:leaf=-0.00499999989
		6:[mile_diff_sparse<0.75] yes=7,no=8,missing=7
			7:leaf=-0.00347138778
			8:leaf=0.00499999989
booster[41]:
0:[register_time_diff_sparse<1.5] yes=1,no=2,missing=1
	1:[mile_diff_sparse<1.5] yes=5,no=6,missing=5
		5:leaf=-0.00499999989
		6:[register_time_diff_sparse<0.25] yes=9,no=10,missing=9
			9:leaf=-0.00273287878
			10:leaf=0.00202166289
	2:[mile_diff_rate_sparse<0.75] yes=3,no=4,missing=3
		3:[displacement_standard2<3] yes=7,no=8,missing=7
			7:leaf=-0.00499999989
			8:leaf=-0.000592941942
		4:leaf=0.00499999989
booster[42]:
0:[register_time_diff_sparse<1.5] yes=1,no=2,missing=1
	1:[mile_diff_sparse<1.5] yes=7,no=8,missing=7
		7:leaf=-0.00499999989
		8:[register_time_diff_sparse<0.25] yes=11,no=12,missing=11
			11:leaf=-0.00301969587
			12:leaf=0.00113597407
	2:[mile_diff_rate_sparse<0.75] yes=3,no=4,missing=3
		3:[fuel_typep1<1] yes=5,no=6,missing=5
			5:leaf=-0.00499999989
			6:leaf=-0.00104626745
		4:[licensed_city_diff_sparse<0.25] yes=9,no=10,missing=9
			9:leaf=0.00149273302
			10:leaf=0.00499999989
booster[43]:
0:[register_time_diff_sparse<1.5] yes=1,no=2,missing=1
	1:[mile_diff_sparse<1.5] yes=7,no=8,missing=7
		7:leaf=-0.00499999989
		8:[register_time_diff_sparse<0.25] yes=11,no=12,missing=11
			11:leaf=-0.00331367902
			12:leaf=0.00246060779
	2:[mile_diff_rate_sparse<0.75] yes=3,no=4,missing=3
		3:[fuel_typep1<1] yes=5,no=6,missing=5
			5:leaf=-0.00499999989
			6:leaf=-0.00077876955
		4:[licensed_city_diff_sparse<0.25] yes=9,no=10,missing=9
			9:leaf=0.00131572806
			10:leaf=0.00499999989
booster[44]:
0:[register_time_diff_sparse<1.5] yes=1,no=2,missing=1
	1:[mile_diff_rate_sparse<1.5] yes=7,no=8,missing=7
		7:leaf=-0.00499999989
		8:[register_time_diff_sparse<0.25] yes=11,no=12,missing=11
			11:leaf=-0.00165694312
			12:leaf=0.000680476427
	2:[mile_diff_rate_sparse<0.75] yes=3,no=4,missing=3
		3:[fuel_typep1<1] yes=5,no=6,missing=5
			5:leaf=-0.00499999989
			6:leaf=-0.000908294751
		4:[licensed_city_diff_sparse<0.25] yes=9,no=10,missing=9
			9:leaf=0.00120023638
			10:leaf=0.00499999989
booster[45]:
0:[register_time_diff_sparse<1.5] yes=1,no=2,missing=1
	1:[mile_diff_sparse<1.5] yes=7,no=8,missing=7
		7:leaf=-0.00499999989
		8:[register_time_diff_sparse<0.25] yes=9,no=10,missing=9
			9:leaf=-0.00203469419
			10:leaf=0.00199807808
	2:[mile_diff_rate_sparse<0.75] yes=3,no=4,missing=3
		3:[fuel_typep1<1] yes=5,no=6,missing=5
			5:leaf=-0.00499999989
			6:leaf=-2.45082556e-05
		4:leaf=0.00499999989
booster[46]:
0:[register_time_diff_sparse<1.5] yes=1,no=2,missing=1
	1:[mile_diff_sparse<1.5] yes=5,no=6,missing=5
		5:leaf=-0.00499999989
		6:[register_time_diff_sparse<0.25] yes=11,no=12,missing=11
			11:leaf=-0.00268625305
			12:leaf=0.00142192107
	2:[mile_diff_rate_sparse<0.75] yes=3,no=4,missing=3
		3:[fuel_typep1<1] yes=7,no=8,missing=7
			7:leaf=-0.00499999989
			8:leaf=-0.00128983567
		4:[licensed_city_diff_sparse<0.25] yes=9,no=10,missing=9
			9:leaf=0.0017050996
			10:leaf=0.00499999989
booster[47]:
0:[fuel_typep1<1] yes=1,no=2,missing=1
	1:[mile_diff_sparse<1.5] yes=3,no=4,missing=3
		3:leaf=-0.00499999989
		4:leaf=0.00499999989
	2:[mile_diff_rate_sparse<0.75] yes=5,no=6,missing=5
		5:leaf=-0.00499999989
		6:[licensed_city_diff_sparse<0.25] yes=7,no=8,missing=7
			7:leaf=-0.00185431063
			8:leaf=0.00499999989
booster[48]:
0:[register_time_diff_sparse<1.5] yes=1,no=2,missing=1
	1:[mile_diff_sparse<1.5] yes=7,no=8,missing=7
		7:leaf=-0.00499999989
		8:[colorp1<5] yes=9,no=10,missing=9
			9:leaf=0.00101252401
			10:leaf=-0.0027812128
	2:[mile_diff_rate_sparse<0.75] yes=3,no=4,missing=3
		3:[fuel_typep1<1] yes=5,no=6,missing=5
			5:leaf=-0.00499999989
			6:leaf=-0.000468165556
		4:[licensed_city_diff_sparse<0.25] yes=11,no=12,missing=11
			11:leaf=0.00253407378
			12:leaf=0.00499999989
booster[49]:
0:[register_time_diff_sparse<1.5] yes=1,no=2,missing=1
	1:[mile_diff_sparse<1.5] yes=5,no=6,missing=5
		5:leaf=-0.00499999989
		6:[register_time_diff_sparse<0.25] yes=9,no=10,missing=9
			9:leaf=-0.00237106718
			10:leaf=0.00241185608
	2:[mile_diff_rate_sparse<0.75] yes=3,no=4,missing=3
		3:[fuel_typep1<1] yes=7,no=8,missing=7
			7:leaf=-0.00499999989
			8:leaf=-0.00131356891
		4:[licensed_city_diff_sparse<0.25] yes=11,no=12,missing=11
			11:leaf=0.00211134553
			12:leaf=0.00499999989
booster[50]:
0:[fuel_typep1<1] yes=1,no=2,missing=1
	1:[mile_diff_sparse<1.5] yes=3,no=4,missing=3
		3:leaf=-0.00499999989
		4:leaf=0.00499999989
	2:[mile_diff_rate_sparse<0.75] yes=5,no=6,missing=5
		5:leaf=-0.00499999989
		6:[licensed_city_diff_sparse<0.25] yes=7,no=8,missing=7
			7:leaf=-0.00197706046
			8:leaf=0.00499999989
booster[51]:
0:[register_time_diff_sparse<1.5] yes=1,no=2,missing=1
	1:[mile_diff_sparse<1.5] yes=7,no=8,missing=7
		7:leaf=-0.00499999989
		8:[register_time_diff_sparse<0.25] yes=11,no=12,missing=11
			11:leaf=-0.00238047703
			12:leaf=0.00167161028
	2:[mile_diff_rate_sparse<0.75] yes=3,no=4,missing=3
		3:[fuel_typep1<1] yes=5,no=6,missing=5
			5:leaf=-0.00499999989
			6:leaf=-0.000438298826
		4:[licensed_city_diff_sparse<0.25] yes=9,no=10,missing=9
			9:leaf=0.000719058211
			10:leaf=0.00499999989
booster[52]:
0:[register_time_diff_sparse<1.5] yes=1,no=2,missing=1
	1:[mile_diff_sparse<1.5] yes=7,no=8,missing=7
		7:leaf=-0.00499999989
		8:[register_time_diff_sparse<0.25] yes=11,no=12,missing=11
			11:leaf=-0.00299661281
			12:leaf=0.00150722114
	2:[mile_diff_rate_sparse<0.75] yes=3,no=4,missing=3
		3:[fuel_typep1<1] yes=5,no=6,missing=5
			5:leaf=-0.00499999989
			6:leaf=-0.000271355995
		4:[licensed_city_diff_sparse<0.25] yes=9,no=10,missing=9
			9:leaf=0.0015191799
			10:leaf=0.00499999989
booster[53]:
0:[register_time_diff_sparse<1.5] yes=1,no=2,missing=1
	1:[mile_diff_rate_sparse<1.5] yes=5,no=6,missing=5
		5:leaf=-0.00499999989
		6:[register_time_diff_sparse<0.25] yes=9,no=10,missing=9
			9:leaf=-0.0020095557
			10:leaf=0.0021158827
	2:[mile_diff_rate_sparse<0.75] yes=3,no=4,missing=3
		3:[fuel_typep1<1] yes=7,no=8,missing=7
			7:leaf=-0.00499999989
			8:leaf=-0.000601471344
		4:[licensed_city_diff_sparse<0.25] yes=11,no=12,missing=11
			11:leaf=0.00236526667
			12:leaf=0.00499999989
booster[54]:
0:[fuel_typep1<1] yes=1,no=2,missing=1
	1:[mile_diff_sparse<1.5] yes=3,no=4,missing=3
		3:leaf=-0.00499999989
		4:leaf=0.00499999989
	2:[mile_diff_rate_sparse<0.75] yes=5,no=6,missing=5
		5:leaf=-0.00499999989
		6:[licensed_city_diff_sparse<0.25] yes=7,no=8,missing=7
			7:leaf=-0.00221858337
			8:leaf=0.00499999989
booster[55]:
0:[fuel_typep1<1] yes=1,no=2,missing=1
	1:[mile_diff_sparse<1.5] yes=3,no=4,missing=3
		3:leaf=-0.00499999989
		4:leaf=0.00499999989
	2:[mile_diff_rate_sparse<0.75] yes=5,no=6,missing=5
		5:leaf=-0.00499999989
		6:[licensed_city_diff_sparse<0.25] yes=7,no=8,missing=7
			7:leaf=-0.00128098123
			8:leaf=0.00499999989
booster[56]:
0:[register_time_diff_sparse<1.5] yes=1,no=2,missing=1
	1:[mile_diff_sparse<1.5] yes=7,no=8,missing=7
		7:leaf=-0.00499999989
		8:[register_time_diff_sparse<0.25] yes=9,no=10,missing=9
			9:leaf=-0.00300110434
			10:leaf=0.00282103987
	2:[mile_diff_rate_sparse<0.75] yes=3,no=4,missing=3
		3:[fuel_typep1<1] yes=5,no=6,missing=5
			5:leaf=-0.00499999989
			6:leaf=1.71455158e-05
		4:leaf=0.00499999989
booster[57]:
0:[register_time_diff_sparse<1.5] yes=1,no=2,missing=1
	1:[mile_diff_rate_sparse<1.5] yes=5,no=6,missing=5
		5:leaf=-0.00499999989
		6:[displacement_standard2<3] yes=11,no=12,missing=11
			11:leaf=0.00272255298
			12:leaf=-0.00125307532
	2:[mile_diff_rate_sparse<0.75] yes=3,no=4,missing=3
		3:[fuel_typep1<1] yes=7,no=8,missing=7
			7:leaf=-0.00499999989
			8:leaf=-0.000834544073
		4:[licensed_city_diff_sparse<0.25] yes=9,no=10,missing=9
			9:leaf=0.000748176186
			10:leaf=0.00499999989
booster[58]:
0:[register_time_diff_sparse<1.5] yes=1,no=2,missing=1
	1:[mile_diff_sparse<1.5] yes=7,no=8,missing=7
		7:leaf=-0.00499999989
		8:[register_time_diff_sparse<0.25] yes=11,no=12,missing=11
			11:leaf=-0.00269406498
			12:leaf=0.000877769431
	2:[mile_diff_rate_sparse<0.75] yes=3,no=4,missing=3
		3:[fuel_typep1<1] yes=5,no=6,missing=5
			5:leaf=-0.00499999989
			6:leaf=-0.000547661504
		4:[licensed_city_diff_sparse<0.25] yes=9,no=10,missing=9
			9:leaf=0.00157505716
			10:leaf=0.00499999989
booster[59]:
0:[register_time_diff_sparse<1.5] yes=1,no=2,missing=1
	1:[mile_diff_sparse<1.5] yes=7,no=8,missing=7
		7:leaf=-0.00499999989
		8:[register_time_diff_sparse<0.25] yes=9,no=10,missing=9
			9:leaf=-0.00236490346
			10:leaf=0.00186781725
	2:[mile_diff_rate_sparse<0.75] yes=3,no=4,missing=3
		3:[fuel_typep1<1] yes=5,no=6,missing=5
			5:leaf=-0.00499999989
			6:leaf=-0.000357741927
		4:leaf=0.00499999989
booster[60]:
0:[fuel_typep1<1] yes=1,no=2,missing=1
	1:[mile_diff_sparse<1.5] yes=3,no=4,missing=3
		3:leaf=-0.00499999989
		4:leaf=0.00499999989
	2:[mile_diff_rate_sparse<0.75] yes=5,no=6,missing=5
		5:leaf=-0.00499999989
		6:[licensed_city_diff_sparse<0.25] yes=7,no=8,missing=7
			7:leaf=-0.00202714116
			8:leaf=0.00499999989
booster[61]:
0:[register_time_diff_sparse<1.5] yes=1,no=2,missing=1
	1:[mile_diff_sparse<1.5] yes=5,no=6,missing=5
		5:leaf=-0.00499999989
		6:[register_time_diff_sparse<0.25] yes=11,no=12,missing=11
			11:leaf=-0.00202437001
			12:leaf=0.00142105471
	2:[mile_diff_rate_sparse<0.75] yes=3,no=4,missing=3
		3:[fuel_typep1<1] yes=7,no=8,missing=7
			7:leaf=-0.00499999989
			8:leaf=-0.00110145018
		4:[licensed_city_diff_sparse<0.25] yes=9,no=10,missing=9
			9:leaf=0.00156697957
			10:leaf=0.00499999989
booster[62]:
0:[fuel_typep1<1] yes=1,no=2,missing=1
	1:[mile_diff_sparse<1.5] yes=3,no=4,missing=3
		3:leaf=-0.00499999989
		4:leaf=0.00499999989
	2:[mile_diff_rate_sparse<0.75] yes=5,no=6,missing=5
		5:leaf=-0.00499999989
		6:[licensed_city_diff_sparse<0.25] yes=7,no=8,missing=7
			7:leaf=-0.00112790533
			8:leaf=0.00499999989
booster[63]:
0:[register_time_diff_sparse<1.5] yes=1,no=2,missing=1
	1:[mile_diff_rate_sparse<1.5] yes=5,no=6,missing=5
		5:leaf=-0.00499999989
		6:[register_time_diff_sparse<0.25] yes=9,no=10,missing=9
			9:leaf=-0.00330248103
			10:leaf=0.00181893818
	2:[mile_diff_rate_sparse<0.75] yes=3,no=4,missing=3
		3:[fuel_typep2<1] yes=7,no=8,missing=7
			7:leaf=-0.00499999989
			8:leaf=-0.000370666501
		4:[licensed_city_diff_sparse<0.25] yes=11,no=12,missing=11
			11:leaf=0.00205416884
			12:leaf=0.00499999989
booster[64]:
0:[register_time_diff_sparse<1.5] yes=1,no=2,missing=1
	1:[mile_diff_sparse<1.5] yes=7,no=8,missing=7
		7:leaf=-0.00499999989
		8:[register_time_diff_sparse<0.25] yes=9,no=10,missing=9
			9:leaf=-0.00202178513
			10:leaf=0.00181116501
	2:[mile_diff_rate_sparse<0.75] yes=3,no=4,missing=3
		3:[fuel_typep1<1] yes=5,no=6,missing=5
			5:leaf=-0.00499999989
			6:leaf=-0.000140421354
		4:leaf=0.00499999989
booster[65]:
0:[register_time_diff_sparse<1.5] yes=1,no=2,missing=1
	1:[mile_diff_sparse<1.5] yes=7,no=8,missing=7
		7:leaf=-0.00499999989
		8:[register_time_diff_sparse<0.25] yes=11,no=12,missing=11
			11:leaf=-0.00297752232
			12:leaf=0.0013810955
	2:[mile_diff_rate_sparse<0.75] yes=3,no=4,missing=3
		3:[fuel_typep1<1] yes=5,no=6,missing=5
			5:leaf=-0.00499999989
			6:leaf=-0.000597850012
		4:[licensed_city_diff_sparse<0.25] yes=9,no=10,missing=9
			9:leaf=0.00144709775
			10:leaf=0.00499999989
booster[66]:
0:[fuel_typep1<1] yes=1,no=2,missing=1
	1:[mile_diff_sparse<1.5] yes=3,no=4,missing=3
		3:leaf=-0.00499999989
		4:leaf=0.00499999989
	2:[mile_diff_rate_sparse<0.75] yes=5,no=6,missing=5
		5:leaf=-0.00499999989
		6:[licensed_city_diff_sparse<0.25] yes=7,no=8,missing=7
			7:leaf=-0.00159128325
			8:leaf=0.00499999989
booster[67]:
0:[register_time_diff_sparse<1.5] yes=1,no=2,missing=1
	1:[mile_diff_rate_sparse<1.5] yes=7,no=8,missing=7
		7:leaf=-0.00499999989
		8:[register_time_diff_sparse<0.25] yes=11,no=12,missing=11
			11:leaf=-0.00298651517
			12:leaf=0.00120654772
	2:[mile_diff_rate_sparse<0.75] yes=3,no=4,missing=3
		3:[fuel_typep1<1] yes=5,no=6,missing=5
			5:leaf=-0.00499999989
			6:leaf=-0.0012236879
		4:[licensed_city_diff_sparse<0.25] yes=9,no=10,missing=9
			9:leaf=0.00186437136
			10:leaf=0.00499999989
booster[68]:
0:[register_time_diff_sparse<1.5] yes=1,no=2,missing=1
	1:[mile_diff_sparse<1.5] yes=7,no=8,missing=7
		7:leaf=-0.00499999989
		8:[register_time_diff_sparse<0.25] yes=11,no=12,missing=11
			11:leaf=-0.00226693484
			12:leaf=0.00135224743
	2:[mile_diff_sparse<0.75] yes=3,no=4,missing=3
		3:[fuel_typep1<1] yes=9,no=10,missing=9
			9:leaf=-0.00499999989
			10:leaf=-0.000459788775
		4:[licensed_city_diff_sparse<0.25] yes=5,no=6,missing=5
			5:leaf=0.000256070372
			6:leaf=0.00499999989
booster[69]:
0:[register_time_diff_sparse<1.5] yes=1,no=2,missing=1
	1:[mile_diff_rate_sparse<1.5] yes=5,no=6,missing=5
		5:leaf=-0.00499999989
		6:[register_time_diff_sparse<0.25] yes=11,no=12,missing=11
			11:leaf=-0.00235170522
			12:leaf=0.00246814755
	2:[mile_diff_rate_sparse<0.75] yes=3,no=4,missing=3
		3:[fuel_typep1<1] yes=7,no=8,missing=7
			7:leaf=-0.00499999989
			8:leaf=-0.000272167439
		4:[licensed_city_diff_sparse<0.25] yes=9,no=10,missing=9
			9:leaf=0.00151420978
			10:leaf=0.00499999989
booster[70]:
0:[register_time_diff_sparse<1.5] yes=1,no=2,missing=1
	1:[mile_diff_sparse<1.5] yes=5,no=6,missing=5
		5:leaf=-0.00499999989
		6:[register_time_diff_sparse<0.25] yes=9,no=10,missing=9
			9:leaf=-0.00295822043
			10:leaf=0.00176153705
	2:[mile_diff_sparse<0.75] yes=3,no=4,missing=3
		3:[fuel_typep1<1] yes=7,no=8,missing=7
			7:leaf=-0.00499999989
			8:leaf=-0.000459624454
		4:leaf=0.00499999989
booster[71]:
0:[register_time_diff_sparse<1.5] yes=1,no=2,missing=1
	1:[mile_diff_rate_sparse<1.5] yes=5,no=6,missing=5
		5:leaf=-0.00499999989
		6:[displacement_standard2<3] yes=9,no=10,missing=9
			9:leaf=0.0026549988
			10:leaf=-0.000874441699
	2:[mile_diff_rate_sparse<0.75] yes=3,no=4,missing=3
		3:[fuel_typep2<1] yes=7,no=8,missing=7
			7:leaf=-0.00499999989
			8:leaf=2.97847637e-05
		4:leaf=0.00499999989
booster[72]:
0:[register_time_diff_sparse<1.5] yes=1,no=2,missing=1
	1:[mile_diff_rate_sparse<1.5] yes=7,no=8,missing=7
		7:leaf=-0.00499999989
		8:[register_time_diff_sparse<0.25] yes=9,no=10,missing=9
			9:leaf=-0.00295238849
			10:leaf=0.00175173278
	2:[mile_diff_rate_sparse<0.75] yes=3,no=4,missing=3
		3:[fuel_typep1<1] yes=5,no=6,missing=5
			5:leaf=-0.00499999989
			6:leaf=-0.000153708417
		4:[licensed_city_diff_sparse<0.25] yes=11,no=12,missing=11
			11:leaf=0.00190691545
			12:leaf=0.00499999989
booster[73]:
0:[register_time_diff_sparse<1.5] yes=1,no=2,missing=1
	1:[mile_diff_sparse<1.5] yes=5,no=6,missing=5
		5:leaf=-0.00499999989
		6:[register_time_diff_sparse<0.25] yes=9,no=10,missing=9
			9:leaf=-0.00264140125
			10:leaf=0.00244373712
	2:[mile_diff_rate_sparse<0.75] yes=3,no=4,missing=3
		3:[fuel_typep2<1] yes=7,no=8,missing=7
			7:leaf=-0.00499999989
			8:leaf=-0.000109796092
		4:[licensed_city_diff_sparse<0.25] yes=11,no=12,missing=11
			11:leaf=0.00206941622
			12:leaf=0.00499999989
booster[74]:
0:[register_time_diff_sparse<1.5] yes=1,no=2,missing=1
	1:[mile_diff_sparse<1.5] yes=5,no=6,missing=5
		5:leaf=-0.00499999989
		6:[register_time_diff_sparse<0.25] yes=11,no=12,missing=11
			11:leaf=-0.00115687482
			12:leaf=0.00103764539
	2:[mile_diff_rate_sparse<0.75] yes=3,no=4,missing=3
		3:[fuel_typep1<1] yes=7,no=8,missing=7
			7:leaf=-0.00499999989
			8:leaf=-0.00129155151
		4:[licensed_city_diff_sparse<0.25] yes=9,no=10,missing=9
			9:leaf=0.00171795778
			10:leaf=0.00499999989
booster[75]:
0:[register_time_diff_sparse<1.5] yes=1,no=2,missing=1
	1:[mile_diff_sparse<1.5] yes=7,no=8,missing=7
		7:leaf=-0.00499999989
		8:[register_time_diff_sparse<0.25] yes=11,no=12,missing=11
			11:leaf=-0.00293025537
			12:leaf=0.00241939561
	2:[mile_diff_rate_sparse<0.75] yes=3,no=4,missing=3
		3:[fuel_typep1<1] yes=5,no=6,missing=5
			5:leaf=-0.00499999989
			6:leaf=-0.000426128157
		4:[licensed_city_diff_sparse<0.25] yes=9,no=10,missing=9
			9:leaf=0.00161469844
			10:leaf=0.00499999989
booster[76]:
0:[register_time_diff_sparse<1.5] yes=1,no=2,missing=1
	1:[mile_diff_sparse<1.5] yes=7,no=8,missing=7
		7:leaf=-0.00499999989
		8:[register_time_diff_sparse<0.25] yes=9,no=10,missing=9
			9:leaf=-0.00261694752
			10:leaf=0.00114836998
	2:[mile_diff_rate_sparse<0.75] yes=3,no=4,missing=3
		3:[displacement_standard1<1] yes=5,no=6,missing=5
			5:leaf=-0.00499999989
			6:leaf=-0.000945303997
		4:leaf=0.00499999989
booster[77]:
0:[register_time_diff_sparse<1.5] yes=1,no=2,missing=1
	1:[mile_diff_sparse<1.5] yes=7,no=8,missing=7
		7:leaf=-0.00499999989
		8:[colorp1<8] yes=11,no=12,missing=11
			11:leaf=0.000636292621
			12:leaf=-0.00263240351
	2:[mile_diff_rate_sparse<0.75] yes=3,no=4,missing=3
		3:[displacement_standard1<1] yes=5,no=6,missing=5
			5:leaf=-0.00499999989
			6:leaf=-0.000549670192
		4:[licensed_city_diff_sparse<0.25] yes=9,no=10,missing=9
			9:leaf=0.00142818212
			10:leaf=0.00499999989
booster[78]:
0:[register_time_diff_sparse<1.5] yes=1,no=2,missing=1
	1:[mile_diff_sparse<1.5] yes=7,no=8,missing=7
		7:leaf=-0.00499999989
		8:[register_time_diff_sparse<0.25] yes=11,no=12,missing=11
			11:leaf=-0.00260488992
			12:leaf=0.00144873734
	2:[mile_diff_rate_sparse<0.75] yes=3,no=4,missing=3
		3:[fuel_typep1<1] yes=5,no=6,missing=5
			5:leaf=-0.00499999989
			6:leaf=-0.000945157313
		4:[licensed_city_diff_sparse<0.25] yes=9,no=10,missing=9
			9:leaf=0.000957568933
			10:leaf=0.00499999989
booster[79]:
0:[register_time_diff_sparse<1.5] yes=1,no=2,missing=1
	1:[mile_diff_sparse<1.5] yes=5,no=6,missing=5
		5:leaf=-0.00499999989
		6:[register_time_diff_sparse<0.25] yes=11,no=12,missing=11
			11:leaf=-0.00259544095
			12:leaf=0.00128891424
	2:[mile_diff_rate_sparse<0.75] yes=3,no=4,missing=3
		3:[displacement_standard1<1] yes=7,no=8,missing=7
			7:leaf=-0.00499999989
			8:leaf=-0.00127500948
		4:[licensed_city_diff_sparse<0.25] yes=9,no=10,missing=9
			9:leaf=0.00148212642
			10:leaf=0.00499999989
booster[80]:
0:[register_time_diff_sparse<1.5] yes=1,no=2,missing=1
	1:[mile_diff_sparse<1.5] yes=7,no=8,missing=7
		7:leaf=-0.00499999989
		8:[register_time_diff_sparse<0.25] yes=11,no=12,missing=11
			11:leaf=-0.00111393607
			12:leaf=0.000382940576
	2:[mile_diff_rate_sparse<0.75] yes=3,no=4,missing=3
		3:[fuel_typep1<1] yes=5,no=6,missing=5
			5:leaf=-0.00499999989
			6:leaf=-0.000842627021
		4:[licensed_city_diff_sparse<0.25] yes=9,no=10,missing=9
			9:leaf=0.00157593947
			10:leaf=0.00499999989
booster[81]:
0:[register_time_diff_sparse<1.5] yes=1,no=2,missing=1
	1:[mile_diff_sparse<1.5] yes=9,no=10,missing=9
		9:leaf=-0.00499999989
		10:[register_time_diff_sparse<0.25] yes=11,no=12,missing=11
			11:leaf=-0.00226618
			12:leaf=0.000712309906
	2:[mile_diff_sparse<0.75] yes=3,no=4,missing=3
		3:[fuel_typep2<1] yes=7,no=8,missing=7
			7:leaf=-0.00499999989
			8:leaf=-0
		4:[licensed_city_diff_sparse<0.25] yes=5,no=6,missing=5
			5:leaf=0.000744434656
			6:leaf=0.00499999989
booster[82]:
0:[register_time_diff_sparse<1.5] yes=1,no=2,missing=1
	1:[mile_diff_sparse<1.5] yes=5,no=6,missing=5
		5:leaf=-0.00499999989
		6:[register_time_diff_sparse<0.25] yes=11,no=12,missing=11
			11:leaf=-0.00190853025
			12:leaf=0.00195489521
	2:[mile_diff_rate_sparse<0.75] yes=3,no=4,missing=3
		3:[displacement_standard1<1] yes=7,no=8,missing=7
			7:leaf=-0.00499999989
			8:leaf=-0.000102466285
		4:[licensed_city_diff_sparse<0.25] yes=9,no=10,missing=9
			9:leaf=0.00119083212
			10:leaf=0.00499999989
booster[83]:
0:[register_time_diff_sparse<1.5] yes=1,no=2,missing=1
	1:[mile_diff_sparse<1.5] yes=7,no=8,missing=7
		7:leaf=-0.00499999989
		8:[colorp1<9] yes=11,no=12,missing=11
			11:leaf=0.00115522114
			12:leaf=-0.00261284714
	2:[mile_diff_rate_sparse<0.75] yes=3,no=4,missing=3
		3:[fuel_typep1<1] yes=5,no=6,missing=5
			5:leaf=-0.00499999989
			6:leaf=-0.000579089101
		4:[licensed_city_diff_sparse<0.25] yes=9,no=10,missing=9
			9:leaf=0.00111589395
			10:leaf=0.00499999989
booster[84]:
0:[register_time_diff_sparse<1.5] yes=1,no=2,missing=1
	1:[mile_diff_rate_sparse<1.5] yes=7,no=8,missing=7
		7:leaf=-0.00499999989
		8:[register_time_diff_sparse<0.25] yes=9,no=10,missing=9
			9:leaf=-0.00383078051
			10:leaf=0.00194517325
	2:[mile_diff_rate_sparse<0.75] yes=3,no=4,missing=3
		3:[fuel_typep1<1] yes=5,no=6,missing=5
			5:leaf=-0.00499999989
			6:leaf=-0
		4:[licensed_city_diff_sparse<0.25] yes=11,no=12,missing=11
			11:leaf=0.0018764016
			12:leaf=0.00499999989
booster[85]:
0:[register_time_diff_sparse<1.5] yes=1,no=2,missing=1
	1:[mile_diff_sparse<1.5] yes=9,no=10,missing=9
		9:leaf=-0.00499999989
		10:[register_time_diff_sparse<0.25] yes=11,no=12,missing=11
			11:leaf=-0.00315832696
			12:leaf=0.000986019731
	2:[mile_diff_sparse<0.75] yes=3,no=4,missing=3
		3:[fuel_typep1<1] yes=5,no=6,missing=5
			5:leaf=-0.00499999989
			6:leaf=-0.00019568541
		4:[licensed_city_diff_sparse<0.25] yes=7,no=8,missing=7
			7:leaf=0.0011211274
			8:leaf=0.00499999989
booster[86]:
0:[register_time_diff_sparse<1.5] yes=1,no=2,missing=1
	1:[mile_diff_sparse<1.5] yes=5,no=6,missing=5
		5:leaf=-0.00499999989
		6:[register_time_diff_sparse<0.25] yes=11,no=12,missing=11
			11:leaf=-0.00254019466
			12:leaf=0.00151611946
	2:[mile_diff_rate_sparse<0.75] yes=3,no=4,missing=3
		3:[fuel_typep1<1] yes=7,no=8,missing=7
			7:leaf=-0.00499999989
			8:leaf=-0.000894778525
		4:[licensed_city_diff_sparse<0.25] yes=9,no=10,missing=9
			9:leaf=0.00213355571
			10:leaf=0.00499999989
booster[87]:
0:[register_time_diff_sparse<1.5] yes=1,no=2,missing=1
	1:[mile_diff_sparse<1.5] yes=5,no=6,missing=5
		5:leaf=-0.00499999989
		6:[register_time_diff_sparse<0.25] yes=11,no=12,missing=11
			11:leaf=-0.00221462129
			12:leaf=0.00192977057
	2:[mile_diff_sparse<0.75] yes=3,no=4,missing=3
		3:[fuel_typep1<1] yes=9,no=10,missing=9
			9:leaf=-0.00499999989
			10:leaf=-0.000852674886
		4:[licensed_city_diff_sparse<0.25] yes=7,no=8,missing=7
			7:leaf=0.000946238986
			8:leaf=0.00499999989
booster[88]:
0:[register_time_diff_sparse<1.5] yes=1,no=2,missing=1
	1:[mile_diff_sparse<1.5] yes=7,no=8,missing=7
		7:leaf=-0.00499999989
		8:[register_time_diff_sparse<0.25] yes=9,no=10,missing=9
			9:leaf=-0.0025230241
			10:leaf=0.00167113938
	2:[mile_diff_rate_sparse<0.75] yes=3,no=4,missing=3
		3:[displacement_standard1<1] yes=5,no=6,missing=5
			5:leaf=-0.00499999989
			6:leaf=-0.000278600346
		4:[displacement_diff_sparse<0.25] yes=11,no=12,missing=11
			11:leaf=0.00171377382
			12:leaf=0.00499999989
booster[89]:
0:[register_time_diff_sparse<1.5] yes=1,no=2,missing=1
	1:[mile_diff_sparse<1.5] yes=5,no=6,missing=5
		5:leaf=-0.00499999989
		6:[colorp1<9] yes=11,no=12,missing=11
			11:leaf=0.00148239697
			12:leaf=-0.00259155175
	2:[mile_diff_sparse<0.75] yes=3,no=4,missing=3
		3:[fuel_typep1<1] yes=9,no=10,missing=9
			9:leaf=-0.00499999989
			10:leaf=0.000292582001
		4:[licensed_city_diff_sparse<0.25] yes=7,no=8,missing=7
			7:leaf=0.000479154172
			8:leaf=0.00499999989
booster[90]:
0:[register_time_diff_sparse<1.5] yes=1,no=2,missing=1
	1:[mile_diff_sparse<1.5] yes=5,no=6,missing=5
		5:leaf=-0.00499999989
		6:[register_time_diff_sparse<0.25] yes=11,no=12,missing=11
			11:leaf=-0.00185506803
			12:leaf=0.00191263051
	2:[mile_diff_rate_sparse<0.75] yes=3,no=4,missing=3
		3:[fuel_typep1<1] yes=7,no=8,missing=7
			7:leaf=-0.00499999989
			8:leaf=-0.000415935123
		4:[licensed_city_diff_sparse<0.25] yes=9,no=10,missing=9
			9:leaf=0.00161876006
			10:leaf=0.00499999989
booster[91]:
0:[register_time_diff_sparse<1.5] yes=1,no=2,missing=1
	1:[mile_diff_sparse<1.5] yes=5,no=6,missing=5
		5:leaf=-0.00499999989
		6:[colorp1<5] yes=11,no=12,missing=11
			11:leaf=0.00243204576
			12:leaf=-0.00162518187
	2:[mile_diff_rate_sparse<0.75] yes=3,no=4,missing=3
		3:[fuel_typep1<1] yes=7,no=8,missing=7
			7:leaf=-0.00499999989
			8:leaf=-0.000414746028
		4:[licensed_city_diff_sparse<0.25] yes=9,no=10,missing=9
			9:leaf=0.0012308117
			10:leaf=0.00499999989
booster[92]:
0:[register_time_diff_sparse<1.5] yes=1,no=2,missing=1
	1:[mile_diff_rate_sparse<1.5] yes=5,no=6,missing=5
		5:leaf=-0.00499999989
		6:[register_time_diff_sparse<0.25] yes=9,no=10,missing=9
			9:leaf=-0.00247912738
			10:leaf=0.00095541589
	2:[mile_diff_rate_sparse<0.75] yes=3,no=4,missing=3
		3:[displacement_standard2<1] yes=7,no=8,missing=7
			7:leaf=-0.00499999989
			8:leaf=-0.000625963847
		4:[licensed_city_diff_sparse<0.25] yes=11,no=12,missing=11
			11:leaf=0.00251037139
			12:leaf=0.00499999989
booster[93]:
0:[register_time_diff_sparse<1.5] yes=1,no=2,missing=1
	1:[mile_diff_sparse<1.5] yes=7,no=8,missing=7
		7:leaf=-0.00499999989
		8:[colorp1<8] yes=11,no=12,missing=11
			11:leaf=0.000331172429
			12:leaf=-0.00257825153
	2:[mile_diff_sparse<0.75] yes=3,no=4,missing=3
		3:[fuel_typep1<1] yes=9,no=10,missing=9
			9:leaf=-0.00499999989
			10:leaf=-0.000668611086
		4:[licensed_city_diff_sparse<0.25] yes=5,no=6,missing=5
			5:leaf=0.000802534807
			6:leaf=0.00499999989
booster[94]:
0:[register_time_diff_sparse<1.5] yes=1,no=2,missing=1
	1:[mile_diff_sparse<1.5] yes=7,no=8,missing=7
		7:leaf=-0.00499999989
		8:[register_time_diff_sparse<0.25] yes=11,no=12,missing=11
			11:leaf=-0.00249471981
			12:leaf=0.000951976224
	2:[mile_diff_rate_sparse<0.75] yes=3,no=4,missing=3
		3:[fuel_typep1<1] yes=5,no=6,missing=5
			5:leaf=-0.00499999989
			6:leaf=-0.000266017509
		4:[licensed_city_diff_sparse<0.25] yes=9,no=10,missing=9
			9:leaf=0.00206481502
			10:leaf=0.00499999989
booster[95]:
0:[register_time_diff_sparse<1.5] yes=1,no=2,missing=1
	1:[mile_diff_sparse<1.5] yes=7,no=8,missing=7
		7:leaf=-0.00499999989
		8:[register_time_diff_sparse<0.25] yes=11,no=12,missing=11
			11:leaf=-0.00217113481
			12:leaf=0.00137768837
	2:[mile_diff_rate_sparse<0.75] yes=3,no=4,missing=3
		3:[displacement_standard1<1] yes=5,no=6,missing=5
			5:leaf=-0.00499999989
			6:leaf=-0.000590779644
		4:[licensed_city_diff_sparse<0.25] yes=9,no=10,missing=9
			9:leaf=0.00147975667
			10:leaf=0.00499999989
booster[96]:
0:[register_time_diff_sparse<1.5] yes=1,no=2,missing=1
	1:[mile_diff_sparse<1.5] yes=5,no=6,missing=5
		5:leaf=-0.00499999989
		6:[register_time_diff_sparse<0.25] yes=11,no=12,missing=11
			11:leaf=-0.00181525527
			12:leaf=0.00137346296
	2:[mile_diff_rate_sparse<0.75] yes=3,no=4,missing=3
		3:[fuel_typep1<1] yes=7,no=8,missing=7
			7:leaf=-0.00499999989
			8:leaf=-0.000676429423
		4:[licensed_city_diff_sparse<0.25] yes=9,no=10,missing=9
			9:leaf=0.00161867018
			10:leaf=0.00499999989
booster[97]:
0:[register_time_diff_sparse<1.5] yes=1,no=2,missing=1
	1:[mile_diff_rate_sparse<1.5] yes=5,no=6,missing=5
		5:leaf=-0.00499999989
		6:[register_time_diff_sparse<0.25] yes=11,no=12,missing=11
			11:leaf=-0.00215861201
			12:leaf=0.00146863516
	2:[mile_diff_rate_sparse<0.75] yes=3,no=4,missing=3
		3:[fuel_typep1<1] yes=7,no=8,missing=7
			7:leaf=-0.00499999989
			8:leaf=-0.000278276158
		4:[licensed_city_diff_sparse<0.25] yes=9,no=10,missing=9
			9:leaf=0.00101921463
			10:leaf=0.00499999989
booster[98]:
0:[register_time_diff_sparse<1.5] yes=1,no=2,missing=1
	1:[mile_diff_sparse<1.5] yes=7,no=8,missing=7
		7:leaf=-0.00499999989
		8:[register_time_diff_sparse<0.25] yes=11,no=12,missing=11
			11:leaf=-0.00373576861
			12:leaf=0.00135263929
	2:[mile_diff_rate_sparse<0.75] yes=3,no=4,missing=3
		3:[fuel_typep1<1] yes=5,no=6,missing=5
			5:leaf=-0.00499999989
			6:leaf=0.000278642168
		4:[licensed_city_diff_sparse<0.25] yes=9,no=10,missing=9
			9:leaf=0.00145610748
			10:leaf=0.00499999989
booster[99]:
0:[register_time_diff_sparse<1.5] yes=1,no=2,missing=1
	1:[mile_diff_sparse<1.5] yes=7,no=8,missing=7
		7:leaf=-0.00499999989
		8:[register_time_diff_sparse<0.25] yes=11,no=12,missing=11
			11:leaf=-0.00306062074
			12:leaf=0.00119847886
	2:[mile_diff_sparse<0.75] yes=3,no=4,missing=3
		3:[fuel_typep1<1] yes=9,no=10,missing=9
			9:leaf=-0.00499999989
			10:leaf=-0.00042712444
		4:[licensed_city_diff_sparse<0.25] yes=5,no=6,missing=5
			5:leaf=0.000231234313
			6:leaf=0.00499999989
booster[100]:
0:[register_time_diff_sparse<1.5] yes=1,no=2,missing=1
	1:[mile_diff_sparse<1.5] yes=5,no=6,missing=5
		5:leaf=-0.00499999989
		6:[register_time_diff_sparse<0.25] yes=11,no=12,missing=11
			11:leaf=-0.00212677359
			12:leaf=0.0018702629
	2:[mile_diff_rate_sparse<0.75] yes=3,no=4,missing=3
		3:[fuel_typep1<1] yes=7,no=8,missing=7
			7:leaf=-0.00499999989
			8:leaf=-0.000882062363
		4:[licensed_city_diff_sparse<0.25] yes=9,no=10,missing=9
			9:leaf=0.00108515564
			10:leaf=0.00499999989
booster[101]:
0:[fuel_typep1<1] yes=1,no=2,missing=1
	1:[mile_diff_sparse<1.5] yes=3,no=4,missing=3
		3:leaf=-0.00499999989
		4:leaf=0.00499999989
	2:[mile_diff_rate_sparse<0.75] yes=5,no=6,missing=5
		5:[colorp1<2] yes=9,no=10,missing=9
			9:leaf=-0.00291063474
			10:leaf=-0.00499999989
		6:[licensed_city_diff_sparse<0.25] yes=7,no=8,missing=7
			7:leaf=-0.00133127905
			8:leaf=0.00499999989
booster[102]:
0:[register_time_diff_sparse<1.5] yes=1,no=2,missing=1
	1:[mile_diff_sparse<1.5] yes=5,no=6,missing=5
		5:leaf=-0.00499999989
		6:[register_time_diff_sparse<0.25] yes=11,no=12,missing=11
			11:leaf=-0.00244822516
			12:leaf=0.00132603315
	2:[mile_diff_sparse<0.75] yes=3,no=4,missing=3
		3:[fuel_typep1<1] yes=7,no=8,missing=7
			7:leaf=-0.00499999989
			8:leaf=-0
		4:[licensed_city_diff_sparse<0.25] yes=9,no=10,missing=9
			9:leaf=0.000883064349
			10:leaf=0.00499999989
booster[103]:
0:[register_time_diff_sparse<1.5] yes=1,no=2,missing=1
	1:[mile_diff_sparse<1.5] yes=5,no=6,missing=5
		5:leaf=-0.00499999989
		6:[colorp1<5] yes=11,no=12,missing=11
			11:leaf=0.00233369018
			12:leaf=-0.000907358073
	2:[mile_diff_rate_sparse<0.75] yes=3,no=4,missing=3
		3:[fuel_typep1<1] yes=7,no=8,missing=7
			7:leaf=-0.00499999989
			8:leaf=-0.000412091642
		4:[licensed_city_diff_sparse<0.25] yes=9,no=10,missing=9
			9:leaf=0.00144492323
			10:leaf=0.00499999989
booster[104]:
0:[register_time_diff_sparse<1.5] yes=1,no=2,missing=1
	1:[mile_diff_sparse<1.5] yes=5,no=6,missing=5
		5:leaf=-0.00499999989
		6:[colorp1<8] yes=11,no=12,missing=11
			11:leaf=0.000985673047
			12:leaf=-0.0025644314
	2:[mile_diff_rate_sparse<0.75] yes=3,no=4,missing=3
		3:[fuel_typep1<1] yes=7,no=8,missing=7
			7:leaf=-0.00499999989
			8:leaf=-0.00116937247
		4:[licensed_city_diff_sparse<0.25] yes=9,no=10,missing=9
			9:leaf=0.00134334795
			10:leaf=0.00499999989
booster[105]:
0:[fuel_typep1<1] yes=1,no=2,missing=1
	1:[mile_diff_sparse<1.5] yes=3,no=4,missing=3
		3:leaf=-0.00499999989
		4:leaf=0.00499999989
	2:[mile_diff_rate_sparse<0.75] yes=5,no=6,missing=5
		5:[colorp1<2] yes=9,no=10,missing=9
			9:leaf=-0.00257161213
			10:leaf=-0.00499999989
		6:[licensed_city_diff_sparse<0.25] yes=7,no=8,missing=7
			7:leaf=-0.00143844169
			8:leaf=0.00499999989
booster[106]:
0:[register_time_diff_sparse<1.5] yes=1,no=2,missing=1
	1:[mile_diff_sparse<1.5] yes=7,no=8,missing=7
		7:leaf=-0.00499999989
		8:[register_time_diff_sparse<0.25] yes=11,no=12,missing=11
			11:leaf=-0.00306304032
			12:leaf=0.00175263057
	2:[mile_diff_rate_sparse<0.75] yes=3,no=4,missing=3
		3:[fuel_typep1<1] yes=5,no=6,missing=5
			5:leaf=-0.00499999989
			6:leaf=-6.62223174e-05
		4:[licensed_city_diff_sparse<0.25] yes=9,no=10,missing=9
			9:leaf=0.00117555156
			10:leaf=0.00499999989
booster[107]:
0:[register_time_diff_sparse<1.5] yes=1,no=2,missing=1
	1:[mile_diff_sparse<1.5] yes=7,no=8,missing=7
		7:leaf=-0.00499999989
		8:[register_time_diff_sparse<0.25] yes=11,no=12,missing=11
			11:leaf=-0.00275458302
			12:leaf=0.00100800011
	2:[mile_diff_rate_sparse<0.75] yes=3,no=4,missing=3
		3:[fuel_typep1<1] yes=5,no=6,missing=5
			5:leaf=-0.00499999989
			6:leaf=-0.000607631227
		4:[licensed_city_diff_sparse<0.25] yes=9,no=10,missing=9
			9:leaf=0.00193676737
			10:leaf=0.00499999989
booster[108]:
0:[register_time_diff_sparse<1.5] yes=1,no=2,missing=1
	1:[mile_diff_rate_sparse<1.5] yes=9,no=10,missing=9
		9:leaf=-0.00499999989
		10:[register_time_diff_sparse<0.25] yes=11,no=12,missing=11
			11:leaf=-0.00273671118
			12:leaf=0.000253166363
	2:[mile_diff_rate_sparse<0.75] yes=3,no=4,missing=3
		3:[fuel_typep1<1] yes=5,no=6,missing=5
			5:leaf=-0.00499999989
			6:leaf=-0.000311452895
		4:[licensed_city_diff_sparse<0.25] yes=7,no=8,missing=7
			7:leaf=0.00125460071
			8:leaf=0.00499999989
booster[109]:
0:[fuel_typep1<1] yes=1,no=2,missing=1
	1:[mile_diff_sparse<1.5] yes=3,no=4,missing=3
		3:leaf=-0.00499999989
		4:leaf=0.00499999989
	2:[mile_diff_rate_sparse<0.75] yes=5,no=6,missing=5
		5:[colorp1<2] yes=9,no=10,missing=9
			9:leaf=-0.00281710597
			10:leaf=-0.00499999989
		6:[licensed_city_diff_sparse<0.25] yes=7,no=8,missing=7
			7:leaf=-0.00153856562
			8:leaf=0.00499999989
booster[110]:
0:[register_time_diff_sparse<1.5] yes=1,no=2,missing=1
	1:[mile_diff_sparse<1.5] yes=7,no=8,missing=7
		7:leaf=-0.00499999989
		8:[register_time_diff_sparse<0.25] yes=11,no=12,missing=11
			11:leaf=-0.00244187634
			12:leaf=0.00127466361
	2:[mile_diff_rate_sparse<0.75] yes=3,no=4,missing=3
		3:[displacement_standard1<1] yes=5,no=6,missing=5
			5:leaf=-0.00499999989
			6:leaf=-0.000662281527
		4:[licensed_city_diff_sparse<0.25] yes=9,no=10,missing=9
			9:leaf=0.00175352034
			10:leaf=0.00499999989
booster[111]:
0:[register_time_diff_sparse<1.5] yes=1,no=2,missing=1
	1:[mile_diff_sparse<1.5] yes=5,no=6,missing=5
		5:leaf=-0.00499999989
		6:[register_time_diff_sparse<0.25] yes=11,no=12,missing=11
			11:leaf=-0.00304451492
			12:leaf=0.00153668656
	2:[mile_diff_rate_sparse<0.75] yes=3,no=4,missing=3
		3:[fuel_typep1<1] yes=7,no=8,missing=7
			7:leaf=-0.00499999989
			8:leaf=-0.00125432177
		4:[licensed_city_diff_sparse<0.25] yes=9,no=10,missing=9
			9:leaf=0.000972586393
			10:leaf=0.00499999989
booster[112]:
0:[register_time_diff_sparse<1.5] yes=1,no=2,missing=1
	1:[mile_diff_sparse<1.5] yes=5,no=6,missing=5
		5:leaf=-0.00499999989
		6:[register_time_diff_sparse<0.25] yes=11,no=12,missing=11
			11:leaf=-0.00211043609
			12:leaf=0.00172693888
	2:[mile_diff_rate_sparse<0.75] yes=3,no=4,missing=3
		3:[fuel_typep1<1] yes=7,no=8,missing=7
			7:leaf=-0.00499999989
			8:leaf=-0.00102162489
		4:[licensed_city_diff_sparse<0.25] yes=9,no=10,missing=9
			9:leaf=0.000731032575
			10:leaf=0.00499999989
booster[113]:
0:[register_time_diff_sparse<1.5] yes=1,no=2,missing=1
	1:[mile_diff_sparse<1.5] yes=7,no=8,missing=7
		7:leaf=-0.00499999989
		8:[register_time_diff_sparse<0.25] yes=11,no=12,missing=11
			11:leaf=-0.00442286674
			12:leaf=0.0010968654
	2:[mile_diff_rate_sparse<0.75] yes=3,no=4,missing=3
		3:[fuel_typep1<1] yes=5,no=6,missing=5
			5:leaf=-0.00499999989
			6:leaf=-0.000389750436
		4:[licensed_city_diff_sparse<0.25] yes=9,no=10,missing=9
			9:leaf=0.0014788002
			10:leaf=0.00499999989
booster[114]:
0:[register_time_diff_sparse<1.5] yes=1,no=2,missing=1
	1:[mile_diff_rate_sparse<1.5] yes=7,no=8,missing=7
		7:leaf=-0.00499999989
		8:[colorp1<8] yes=11,no=12,missing=11
			11:leaf=0.00131393678
			12:leaf=-0.00266620843
	2:[mile_diff_rate_sparse<0.75] yes=3,no=4,missing=3
		3:[title_diff_sparse<1.5] yes=5,no=6,missing=5
			5:leaf=-0.00499999989
			6:leaf=-0.000421075209
		4:[licensed_city_diff_sparse<0.25] yes=9,no=10,missing=9
			9:leaf=0.00139210222
			10:leaf=0.00499999989
booster[115]:
0:[register_time_diff_sparse<1.5] yes=1,no=2,missing=1
	1:[mile_diff_sparse<1.5] yes=5,no=6,missing=5
		5:leaf=-0.00499999989
		6:[register_time_diff_sparse<0.25] yes=11,no=12,missing=11
			11:leaf=-0.00237966818
			12:leaf=0.0017703562
	2:[mile_diff_sparse<0.75] yes=3,no=4,missing=3
		3:[displacement_standard1<1] yes=9,no=10,missing=9
			9:leaf=-0.00499999989
			10:leaf=-0.000391319016
		4:[licensed_city_diff_sparse<0.25] yes=7,no=8,missing=7
			7:leaf=0.000304139976
			8:leaf=0.00499999989
booster[116]:
0:[register_time_diff_sparse<1.5] yes=1,no=2,missing=1
	1:[mile_diff_sparse<1.5] yes=9,no=10,missing=9
		9:leaf=-0.00499999989
		10:[register_time_diff_sparse<0.25] yes=11,no=12,missing=11
			11:leaf=-0.00269655464
			12:leaf=0.000955444237
	2:[mile_diff_sparse<0.75] yes=3,no=4,missing=3
		3:[displacement_standard1<1] yes=7,no=8,missing=7
			7:leaf=-0.00499999989
			8:leaf=-0
		4:[licensed_city_diff_sparse<0.25] yes=5,no=6,missing=5
			5:leaf=-0.000410222303
			6:leaf=0.00499999989
booster[117]:
0:[register_time_diff_sparse<1.5] yes=1,no=2,missing=1
	1:[mile_diff_sparse<1.5] yes=5,no=6,missing=5
		5:leaf=-0.00499999989
		6:[register_time_diff_sparse<0.25] yes=11,no=12,missing=11
			11:leaf=-0.00299277622
			12:leaf=0.00133610051
	2:[mile_diff_rate_sparse<0.75] yes=3,no=4,missing=3
		3:[displacement_standard1<1] yes=7,no=8,missing=7
			7:leaf=-0.00499999989
			8:leaf=-0.000768817728
		4:[licensed_city_diff_sparse<0.25] yes=9,no=10,missing=9
			9:leaf=0.00113617105
			10:leaf=0.00499999989
booster[118]:
0:[register_time_diff_sparse<1.5] yes=1,no=2,missing=1
	1:[mile_diff_rate_sparse<1.5] yes=7,no=8,missing=7
		7:leaf=-0.00499999989
		8:[register_time_diff_sparse<0.25] yes=11,no=12,missing=11
			11:leaf=-0.00205808808
			12:leaf=0.00133084296
	2:[mile_diff_rate_sparse<0.75] yes=3,no=4,missing=3
		3:[fuel_typep1<1] yes=5,no=6,missing=5
			5:leaf=-0.00499999989
			6:leaf=-2.68756739e-05
		4:[licensed_city_diff_sparse<0.25] yes=9,no=10,missing=9
			9:leaf=0.00104901008
			10:leaf=0.00499999989
booster[119]:
0:[register_time_diff_sparse<1.5] yes=1,no=2,missing=1
	1:[mile_diff_sparse<1.5] yes=5,no=6,missing=5
		5:leaf=-0.00499999989
		6:[register_time_diff_sparse<0.25] yes=11,no=12,missing=11
			11:leaf=-0.00297050434
			12:leaf=0.00219875341
	2:[mile_diff_rate_sparse<0.75] yes=3,no=4,missing=3
		3:[fuel_typep1<1] yes=7,no=8,missing=7
			7:leaf=-0.00499999989
			8:leaf=-0.000602036947
		4:[licensed_city_diff_sparse<0.25] yes=9,no=10,missing=9
			9:leaf=0.000511523394
			10:leaf=0.00499999989
booster[120]:
0:[register_time_diff_sparse<1.5] yes=1,no=2,missing=1
	1:[mile_diff_sparse<1.5] yes=5,no=6,missing=5
		5:leaf=-0.00499999989
		6:[colorp1<9] yes=11,no=12,missing=11
			11:leaf=0.00196693349
			12:leaf=-0.0025409474
	2:[mile_diff_rate_sparse<0.75] yes=3,no=4,missing=3
		3:[fuel_typep1<1] yes=7,no=8,missing=7
			7:leaf=-0.00499999989
			8:leaf=-0.000981737976
		4:[licensed_city_diff_sparse<0.25] yes=9,no=10,missing=9
			9:leaf=0.0011341864
			10:leaf=0.00499999989
booster[121]:
0:[register_time_diff_sparse<1.5] yes=1,no=2,missing=1
	1:[mile_diff_sparse<1.5] yes=7,no=8,missing=7
		7:leaf=-0.00499999989
		8:[register_time_diff_sparse<0.25] yes=11,no=12,missing=11
			11:leaf=-0.00303708646
			12:leaf=0.00121726922
	2:[mile_diff_rate_sparse<0.75] yes=3,no=4,missing=3
		3:[fuel_typep2<1] yes=5,no=6,missing=5
			5:leaf=-0.00499999989
			6:leaf=-0.000571207085
		4:[licensed_city_diff_sparse<0.25] yes=9,no=10,missing=9
			9:leaf=0.00208862079
			10:leaf=0.00499999989
booster[122]:
0:[register_time_diff_sparse<1.5] yes=1,no=2,missing=1
	1:[mile_diff_rate_sparse<1.5] yes=5,no=6,missing=5
		5:leaf=-0.00499999989
		6:[register_time_diff_sparse<0.25] yes=11,no=12,missing=11
			11:leaf=-0.00205205265
			12:leaf=0.00103883981
	2:[mile_diff_rate_sparse<0.75] yes=3,no=4,missing=3
		3:[displacement_standard1<2] yes=7,no=8,missing=7
			7:leaf=-0.00499999989
			8:leaf=-0.00123738765
		4:[licensed_city_diff_sparse<0.25] yes=9,no=10,missing=9
			9:leaf=0.00143474131
			10:leaf=0.00499999989
booster[123]:
0:[fuel_typep1<1] yes=1,no=2,missing=1
	1:[mile_diff_sparse<1.5] yes=3,no=4,missing=3
		3:leaf=-0.00499999989
		4:leaf=0.00499999989
	2:[mile_diff_sparse<0.75] yes=5,no=6,missing=5
		5:[displacement_standard1<3] yes=9,no=10,missing=9
			9:leaf=-0.000952671689
			10:leaf=-0.00499999989
		6:[licensed_city_diff_sparse<0.25] yes=7,no=8,missing=7
			7:leaf=-0.00185193226
			8:leaf=0.00499999989
booster[124]:
0:[register_time_diff_sparse<1.5] yes=1,no=2,missing=1
	1:[mile_diff_rate_sparse<1.5] yes=5,no=6,missing=5
		5:leaf=-0.00499999989
		6:[register_time_diff_sparse<0.25] yes=11,no=12,missing=11
			11:leaf=-0.0023495662
			12:leaf=0.00191259035
	2:[mile_diff_rate_sparse<0.75] yes=3,no=4,missing=3
		3:[fuel_typep1<1] yes=7,no=8,missing=7
			7:leaf=-0.00499999989
			8:leaf=-0.000483020616
		4:[licensed_city_diff_sparse<0.25] yes=9,no=10,missing=9
			9:leaf=0.00075359788
			10:leaf=0.00499999989
booster[125]:
0:[register_time_diff_sparse<1.5] yes=1,no=2,missing=1
	1:[mile_diff_sparse<1.5] yes=5,no=6,missing=5
		5:leaf=-0.00499999989
		6:[register_time_diff_sparse<0.25] yes=11,no=12,missing=11
			11:leaf=-0.0016829106
			12:leaf=0.00102387788
	2:[mile_diff_rate_sparse<0.75] yes=3,no=4,missing=3
		3:[fuel_typep1<1] yes=7,no=8,missing=7
			7:leaf=-0.00499999989
			8:leaf=-0.000623127155
		4:[licensed_city_diff_sparse<0.25] yes=9,no=10,missing=9
			9:leaf=0.00103666063
			10:leaf=0.00499999989
booster[126]:
0:[register_time_diff_sparse<1.5] yes=1,no=2,missing=1
	1:[mile_diff_sparse<1.5] yes=9,no=10,missing=9
		9:leaf=-0.00499999989
		10:[colorp1<9] yes=11,no=12,missing=11
			11:leaf=0.000251709687
			12:leaf=-0.0025403956
	2:[mile_diff_rate_sparse<0.75] yes=3,no=4,missing=3
		3:[fuel_typep1<1] yes=5,no=6,missing=5
			5:leaf=-0.00499999989
			6:leaf=-0
		4:[licensed_city_diff_sparse<0.25] yes=7,no=8,missing=7
			7:leaf=0.00102228648
			8:leaf=0.00499999989
booster[127]:
0:[register_time_diff_sparse<1.5] yes=1,no=2,missing=1
	1:[mile_diff_sparse<1.5] yes=5,no=6,missing=5
		5:leaf=-0.00499999989
		6:[register_time_diff_sparse<0.25] yes=11,no=12,missing=11
			11:leaf=-0.00202252856
			12:leaf=0.00169605331
	2:[mile_diff_rate_sparse<0.75] yes=3,no=4,missing=3
		3:[fuel_typep1<1] yes=7,no=8,missing=7
			7:leaf=-0.00499999989
			8:leaf=-0.000325474131
		4:[licensed_city_diff_sparse<0.25] yes=9,no=10,missing=9
			9:leaf=0.00135800836
			10:leaf=0.00499999989
booster[128]:
0:[register_time_diff_sparse<1.5] yes=1,no=2,missing=1
	1:[mile_diff_sparse<1.5] yes=9,no=10,missing=9
		9:leaf=-0.00499999989
		10:[register_time_diff_sparse<0.25] yes=11,no=12,missing=11
			11:leaf=-0.00293010054
			12:leaf=0.000447995058
	2:[mile_diff_sparse<0.75] yes=3,no=4,missing=3
		3:[fuel_typep1<1] yes=7,no=8,missing=7
			7:leaf=-0.00499999989
			8:leaf=-6.77810094e-05
		4:[licensed_city_diff_sparse<0.25] yes=5,no=6,missing=5
			5:leaf=0.00114624586
			6:leaf=0.00499999989
booster[129]:
0:[register_time_diff_sparse<1.5] yes=1,no=2,missing=1
	1:[mile_diff_sparse<1.5] yes=5,no=6,missing=5
		5:leaf=-0.00499999989
		6:[colorp1<7] yes=11,no=12,missing=11
			11:leaf=0.00196460309
			12:leaf=-0.00123463292
	2:[mile_diff_rate_sparse<0.75] yes=3,no=4,missing=3
		3:[fuel_typep1<1] yes=7,no=8,missing=7
			7:leaf=-0.00499999989
			8:leaf=-0.000132290923
		4:[licensed_city_diff_sparse<0.25] yes=9,no=10,missing=9
			9:leaf=0.00155777007
			10:leaf=0.00499999989
booster[130]:
0:[register_time_diff_sparse<1.5] yes=1,no=2,missing=1
	1:[mile_diff_rate_sparse<1.5] yes=5,no=6,missing=5
		5:leaf=-0.00499999989
		6:[register_time_diff_sparse<0.25] yes=11,no=12,missing=11
			11:leaf=-0.00166599045
			12:leaf=0.0013510756
	2:[mile_diff_rate_sparse<0.75] yes=3,no=4,missing=3
		3:[fuel_typep1<1] yes=7,no=8,missing=7
			7:leaf=-0.00499999989
			8:leaf=-0.000737729657
		4:[licensed_city_diff_sparse<0.25] yes=9,no=10,missing=9
			9:leaf=0.00125145179
			10:leaf=0.00499999989
booster[131]:
0:[register_time_diff_sparse<1.5] yes=1,no=2,missing=1
	1:[mile_diff_sparse<1.5] yes=7,no=8,missing=7
		7:leaf=-0.00499999989
		8:[register_time_diff_sparse<0.25] yes=9,no=10,missing=9
			9:leaf=-0.00168608956
			10:leaf=0.000441461831
	2:[mile_diff_rate_sparse<0.75] yes=3,no=4,missing=3
		3:[fuel_typep1<1] yes=5,no=6,missing=5
			5:leaf=-0.00499999989
			6:leaf=-0.000927180983
		4:[displacement_diff_sparse<0.25] yes=11,no=12,missing=11
			11:leaf=0.00216866587
			12:leaf=0.00499999989
booster[132]:
0:[register_time_diff_sparse<1.5] yes=1,no=2,missing=1
	1:[mile_diff_sparse<1.5] yes=7,no=8,missing=7
		7:[fuel_typep2<6] yes=13,no=14,missing=13
			13:leaf=-0.00499999989
			14:leaf=-0.00184357399
		8:[register_time_diff_sparse<0.25] yes=9,no=10,missing=9
			9:leaf=-0.00230340729
			10:leaf=0.00134934753
	2:[mile_diff_rate_sparse<0.75] yes=3,no=4,missing=3
		3:[fuel_typep1<1] yes=5,no=6,missing=5
			5:leaf=-0.00499999989
			6:leaf=-0.000637166726
		4:[displacement_diff_sparse<0.25] yes=11,no=12,missing=11
			11:leaf=0.00168223318
			12:leaf=0.00499999989
booster[133]:
0:[register_time_diff_sparse<1.5] yes=1,no=2,missing=1
	1:[mile_diff_sparse<1.5] yes=5,no=6,missing=5
		5:leaf=-0.00499999989
		6:[colorp1<8] yes=11,no=12,missing=11
			11:leaf=0.000502811978
			12:leaf=-0.00252305879
	2:[mile_diff_sparse<0.75] yes=3,no=4,missing=3
		3:[displacement_standard1<1] yes=7,no=8,missing=7
			7:leaf=-0.00499999989
			8:leaf=-0.000530137098
		4:[licensed_city_diff_sparse<0.25] yes=9,no=10,missing=9
			9:leaf=0.00121123379
			10:leaf=0.00499999989
booster[134]:
0:[register_time_diff_sparse<1.5] yes=1,no=2,missing=1
	1:[mile_diff_sparse<1.5] yes=7,no=8,missing=7
		7:leaf=-0.00499999989
		8:[register_time_diff_sparse<0.25] yes=11,no=12,missing=11
			11:leaf=-0.00229260791
			12:leaf=0.00134993158
	2:[mile_diff_rate_sparse<0.75] yes=3,no=4,missing=3
		3:[fuel_typep1<1] yes=5,no=6,missing=5
			5:leaf=-0.00499999989
			6:leaf=-0.000319670071
		4:[licensed_city_diff_sparse<0.25] yes=9,no=10,missing=9
			9:leaf=0.00187923515
			10:leaf=0.00499999989
booster[135]:
0:[register_time_diff_sparse<1.5] yes=1,no=2,missing=1
	1:[mile_diff_sparse<1.5] yes=5,no=6,missing=5
		5:leaf=-0.00499999989
		6:[colorp1<5] yes=11,no=12,missing=11
			11:leaf=0.00164926983
			12:leaf=-0.00169484178
	2:[mile_diff_rate_sparse<0.75] yes=3,no=4,missing=3
		3:[fuel_typep1<1] yes=9,no=10,missing=9
			9:leaf=-0.00499999989
			10:leaf=-0.000867121271
		4:[licensed_city_diff_sparse<0.25] yes=7,no=8,missing=7
			7:leaf=0.000591155549
			8:leaf=0.00499999989
booster[136]:
0:[register_time_diff_sparse<1.5] yes=1,no=2,missing=1
	1:[mile_diff_sparse<1.5] yes=5,no=6,missing=5
		5:leaf=-0.00499999989
		6:[register_time_diff_sparse<0.25] yes=11,no=12,missing=11
			11:leaf=-0.0022833671
			12:leaf=0.00099401339
	2:[mile_diff_rate_sparse<0.75] yes=3,no=4,missing=3
		3:[fuel_typep1<1] yes=9,no=10,missing=9
			9:leaf=-0.00499999989
			10:leaf=-0.000860740605
		4:[licensed_city_diff_sparse<0.25] yes=7,no=8,missing=7
			7:leaf=0.000663694052
			8:leaf=0.00499999989
booster[137]:
0:[register_time_diff_sparse<1.5] yes=1,no=2,missing=1
	1:[mile_diff_sparse<1.5] yes=7,no=8,missing=7
		7:leaf=-0.00499999989
		8:[register_time_diff_sparse<0.25] yes=11,no=12,missing=11
			11:leaf=-0.001629862
			12:leaf=0.00116068532
	2:[mile_diff_rate_sparse<0.75] yes=3,no=4,missing=3
		3:[fuel_typep1<1] yes=5,no=6,missing=5
			5:leaf=-0.00499999989
			6:leaf=0.000127473424
		4:[licensed_city_diff_sparse<0.25] yes=9,no=10,missing=9
			9:leaf=0.00118588051
			10:leaf=0.00499999989
booster[138]:
0:[register_time_diff_sparse<1.5] yes=1,no=2,missing=1
	1:[mile_diff_sparse<1.5] yes=5,no=6,missing=5
		5:leaf=-0.00499999989
		6:[register_time_diff_sparse<0.25] yes=11,no=12,missing=11
			11:leaf=-0.00259462162
			12:leaf=0.00187649962
	2:[mile_diff_rate_sparse<0.75] yes=3,no=4,missing=3
		3:[fuel_typep1<1] yes=7,no=8,missing=7
			7:leaf=-0.00499999989
			8:leaf=-0.00114871713
		4:[licensed_city_diff_sparse<0.25] yes=9,no=10,missing=9
			9:leaf=0.00127753895
			10:leaf=0.00499999989
booster[139]:
0:[register_time_diff_sparse<1.5] yes=1,no=2,missing=1
	1:[mile_diff_rate_sparse<1.5] yes=7,no=8,missing=7
		7:leaf=-0.00499999989
		8:[register_time_diff_sparse<0.25] yes=11,no=12,missing=11
			11:leaf=-0.0028786622
			12:leaf=7.07135769e-05
	2:[mile_diff_rate_sparse<0.75] yes=3,no=4,missing=3
		3:[fuel_typep1<1] yes=5,no=6,missing=5
			5:leaf=-0.00499999989
			6:leaf=-0.000726283004
		4:[licensed_city_diff_sparse<0.25] yes=9,no=10,missing=9
			9:leaf=0.00171327114
			10:leaf=0.00499999989
booster[140]:
0:[register_time_diff_sparse<1.5] yes=1,no=2,missing=1
	1:[mile_diff_sparse<1.5] yes=7,no=8,missing=7
		7:leaf=-0.00499999989
		8:[colorp1<9] yes=11,no=12,missing=11
			11:leaf=0.00170135126
			12:leaf=-0.00249196868
	2:[mile_diff_rate_sparse<0.75] yes=3,no=4,missing=3
		3:[fuel_typep1<1] yes=5,no=6,missing=5
			5:leaf=-0.00499999989
			6:leaf=-0.00012973469
		4:[licensed_city_diff_sparse<0.25] yes=9,no=10,missing=9
			9:leaf=0.000901189575
			10:leaf=0.00499999989
booster[141]:
0:[register_time_diff_sparse<1.5] yes=1,no=2,missing=1
	1:[mile_diff_rate_sparse<1.5] yes=7,no=8,missing=7
		7:leaf=-0.00499999989
		8:[register_time_diff_sparse<0.25] yes=11,no=12,missing=11
			11:leaf=-0.00224997895
			12:leaf=0.000850875338
	2:[mile_diff_rate_sparse<0.75] yes=3,no=4,missing=3
		3:[fuel_typep1<1] yes=5,no=6,missing=5
			5:leaf=-0.00499999989
			6:leaf=-0.0004020622
		4:[licensed_city_diff_sparse<0.25] yes=9,no=10,missing=9
			9:leaf=0.00107501342
			10:leaf=0.00499999989
booster[142]:
0:[register_time_diff_sparse<1.5] yes=1,no=2,missing=1
	1:[mile_diff_sparse<1.5] yes=7,no=8,missing=7
		7:leaf=-0.00499999989
		8:[colorp1<9] yes=11,no=12,missing=11
			11:leaf=0.000831790152
			12:leaf=-0.00248094485
	2:[mile_diff_rate_sparse<0.75] yes=3,no=4,missing=3
		3:[fuel_typep1<1] yes=5,no=6,missing=5
			5:leaf=-0.00499999989
			6:leaf=-0.000637408986
		4:[licensed_city_diff_sparse<0.25] yes=9,no=10,missing=9
			9:leaf=0.00157516357
			10:leaf=0.00499999989
booster[143]:
0:[register_time_diff_sparse<1.5] yes=1,no=2,missing=1
	1:[mile_diff_sparse<1.5] yes=5,no=6,missing=5
		5:leaf=-0.00499999989
		6:[register_time_diff_sparse<0.25] yes=9,no=10,missing=9
			9:leaf=-0.00286015426
			10:leaf=0.00164564757
	2:[mile_diff_rate_sparse<0.75] yes=3,no=4,missing=3
		3:[fuel_typep1<1] yes=7,no=8,missing=7
			7:leaf=-0.00499999989
			8:leaf=-0.000891515985
		4:leaf=0.00499999989
booster[144]:
0:[register_time_diff_sparse<1.5] yes=1,no=2,missing=1
	1:[mile_diff_sparse<1.5] yes=5,no=6,missing=5
		5:leaf=-0.00499999989
		6:[register_time_diff_sparse<0.25] yes=11,no=12,missing=11
			11:leaf=-0.00223000976
			12:leaf=0.000965025625
	2:[mile_diff_rate_sparse<0.75] yes=3,no=4,missing=3
		3:[fuel_typep1<1] yes=7,no=8,missing=7
			7:leaf=-0.00499999989
			8:leaf=-0.00071965903
		4:[licensed_city_diff_sparse<0.25] yes=9,no=10,missing=9
			9:leaf=0.000613998331
			10:leaf=0.00499999989
booster[145]:
0:[register_time_diff_sparse<1.5] yes=1,no=2,missing=1
	1:[mile_diff_sparse<1.5] yes=5,no=6,missing=5
		5:leaf=-0.00499999989
		6:[register_time_diff_sparse<0.25] yes=11,no=12,missing=11
			11:leaf=-0.00185451424
			12:leaf=0.00121761882
	2:[mile_diff_rate_sparse<0.75] yes=3,no=4,missing=3
		3:[title_diff_sparse<1.5] yes=7,no=8,missing=7
			7:leaf=-0.00499999989
			8:leaf=-0.000536073872
		4:[licensed_city_diff_sparse<0.25] yes=9,no=10,missing=9
			9:leaf=0.00178582943
			10:leaf=0.00499999989
booster[146]:
0:[register_time_diff_sparse<1.5] yes=1,no=2,missing=1
	1:[mile_diff_rate_sparse<1.5] yes=7,no=8,missing=7
		7:leaf=-0.00499999989
		8:[register_time_diff_sparse<0.25] yes=9,no=10,missing=9
			9:leaf=-0.00221551838
			10:leaf=0.000392825401
	2:[mile_diff_rate_sparse<0.75] yes=3,no=4,missing=3
		3:[fuel_typep1<1] yes=5,no=6,missing=5
			5:leaf=-0.00499999989
			6:leaf=0.000255990628
		4:leaf=0.00499999989
booster[147]:
0:[register_time_diff_sparse<1.5] yes=1,no=2,missing=1
	1:[mile_diff_sparse<1.5] yes=5,no=6,missing=5
		5:[fuel_typep2<3] yes=13,no=14,missing=13
			13:leaf=-0.00499999989
			14:leaf=-0.00188896246
		6:[register_time_diff_sparse<0.25] yes=11,no=12,missing=11
			11:leaf=-0.00252663903
			12:leaf=0.000957940065
	2:[mile_diff_rate_sparse<0.75] yes=3,no=4,missing=3
		3:[fuel_typep1<1] yes=7,no=8,missing=7
			7:leaf=-0.00499999989
			8:leaf=-0.000737481052
		4:[licensed_city_diff_sparse<0.25] yes=9,no=10,missing=9
			9:leaf=0.000764981727
			10:leaf=0.00499999989
booster[148]:
0:[register_time_diff_sparse<1.5] yes=1,no=2,missing=1
	1:[mile_diff_sparse<1.5] yes=5,no=6,missing=5
		5:leaf=-0.00499999989
		6:[register_time_diff_sparse<0.25] yes=11,no=12,missing=11
			11:leaf=-0.00156583451
			12:leaf=0.00157130801
	2:[mile_diff_rate_sparse<0.75] yes=3,no=4,missing=3
		3:[fuel_typep1<1] yes=9,no=10,missing=9
			9:leaf=-0.00499999989
			10:leaf=-0.00069772423
		4:[licensed_city_diff_sparse<0.25] yes=7,no=8,missing=7
			7:leaf=0.00067290687
			8:leaf=0.00499999989
booster[149]:
0:[register_time_diff_sparse<1.5] yes=1,no=2,missing=1
	1:[mile_diff_sparse<1.5] yes=7,no=8,missing=7
		7:leaf=-0.00499999989
		8:[register_time_diff_sparse<0.25] yes=11,no=12,missing=11
			11:leaf=-0.00348663353
			12:leaf=0.00161962979
	2:[mile_diff_rate_sparse<0.75] yes=3,no=4,missing=3
		3:[fuel_typep1<1] yes=5,no=6,missing=5
			5:leaf=-0.00499999989
			6:leaf=-0.000497089117
		4:[licensed_city_diff_sparse<0.25] yes=9,no=10,missing=9
			9:leaf=0.00100383232
			10:leaf=0.00499999989
booster[150]:
0:[register_time_diff_sparse<1.5] yes=1,no=2,missing=1
	1:[mile_diff_rate_sparse<1.5] yes=5,no=6,missing=5
		5:leaf=-0.00499999989
		6:[register_time_diff_sparse<0.25] yes=11,no=12,missing=11
			11:leaf=-0.00153088884
			12:leaf=0.00137216249
	2:[mile_diff_rate_sparse<0.75] yes=3,no=4,missing=3
		3:[fuel_typep1<1] yes=7,no=8,missing=7
			7:leaf=-0.00499999989
			8:leaf=-0.000653524359
		4:[licensed_city_diff_sparse<0.25] yes=9,no=10,missing=9
			9:leaf=0.000563926878
			10:leaf=0.00499999989
booster[151]:
0:[fuel_typep1<1] yes=1,no=2,missing=1
	1:[mile_diff_sparse<1.5] yes=3,no=4,missing=3
		3:leaf=-0.00499999989
		4:leaf=0.00499999989
	2:[mile_diff_rate_sparse<0.75] yes=5,no=6,missing=5
		5:[transfer_times_diff_sparse<2] yes=9,no=10,missing=9
			9:leaf=-0.00499999989
			10:leaf=-0.00322033558
		6:[licensed_city_diff_sparse<0.25] yes=7,no=8,missing=7
			7:leaf=-0.00133228907
			8:leaf=0.00499999989
booster[152]:
0:[fuel_typep1<1] yes=1,no=2,missing=1
	1:[mile_diff_sparse<1.5] yes=3,no=4,missing=3
		3:leaf=-0.00499999989
		4:leaf=0.00499999989
	2:[mile_diff_rate_sparse<0.75] yes=5,no=6,missing=5
		5:[colorp1<2] yes=9,no=10,missing=9
			9:leaf=-0.00224603945
			10:leaf=-0.00499999989
		6:[licensed_city_diff_sparse<0.25] yes=7,no=8,missing=7
			7:leaf=-0.000973114627
			8:leaf=0.00499999989
booster[153]:
0:[register_time_diff_sparse<1.5] yes=1,no=2,missing=1
	1:[mile_diff_sparse<1.5] yes=5,no=6,missing=5
		5:leaf=-0.00499999989
		6:[register_time_diff_sparse<0.25] yes=11,no=12,missing=11
			11:leaf=-0.00155506679
			12:leaf=0.000898955273
	2:[mile_diff_rate_sparse<0.75] yes=3,no=4,missing=3
		3:[fuel_typep1<1] yes=7,no=8,missing=7
			7:leaf=-0.00499999989
			8:leaf=-0.000398251752
		4:[licensed_city_diff_sparse<0.25] yes=9,no=10,missing=9
			9:leaf=0.00164870219
			10:leaf=0.00499999989
booster[154]:
0:[register_time_diff_sparse<1.5] yes=1,no=2,missing=1
	1:[mile_diff_sparse<1.5] yes=5,no=6,missing=5
		5:leaf=-0.00499999989
		6:[colorp1<5] yes=9,no=10,missing=9
			9:leaf=0.00186645053
			10:leaf=-0.000842481444
	2:[mile_diff_rate_sparse<0.75] yes=3,no=4,missing=3
		3:[fuel_typep1<1] yes=7,no=8,missing=7
			7:leaf=-0.00499999989
			8:leaf=-0.000772633008
		4:leaf=0.00499999989
booster[155]:
0:[register_time_diff_sparse<1.5] yes=1,no=2,missing=1
	1:[mile_diff_sparse<1.5] yes=5,no=6,missing=5
		5:leaf=-0.00499999989
		6:[colorp1<7] yes=11,no=12,missing=11
			11:leaf=0.00102955708
			12:leaf=-0.00142709143
	2:[mile_diff_rate_sparse<0.75] yes=3,no=4,missing=3
		3:[displacement_standard1<1] yes=7,no=8,missing=7
			7:leaf=-0.00499999989
			8:leaf=-0.000514683314
		4:[licensed_city_diff_sparse<0.25] yes=9,no=10,missing=9
			9:leaf=0.00138611498
			10:leaf=0.00499999989
booster[156]:
0:[register_time_diff_sparse<1.5] yes=1,no=2,missing=1
	1:[mile_diff_rate_sparse<1.5] yes=7,no=8,missing=7
		7:leaf=-0.00499999989
		8:[colorp1<9] yes=9,no=10,missing=9
			9:leaf=0.000860222848
			10:leaf=-0.00247944985
	2:[mile_diff_rate_sparse<0.75] yes=3,no=4,missing=3
		3:[fuel_typep1<1] yes=5,no=6,missing=5
			5:leaf=-0.00499999989
			6:leaf=-0.000527952099
		4:[displacement_diff_sparse<0.25] yes=11,no=12,missing=11
			11:leaf=0.00130567583
			12:leaf=0.00499999989
booster[157]:
0:[register_time_diff_sparse<1.5] yes=1,no=2,missing=1
	1:[mile_diff_sparse<1.5] yes=5,no=6,missing=5
		5:leaf=-0.00499999989
		6:[register_time_diff_sparse<0.25] yes=9,no=10,missing=9
			9:leaf=-0.00282316213
			10:leaf=0.00132995599
	2:[mile_diff_rate_sparse<0.75] yes=3,no=4,missing=3
		3:[displacement_standard2<1] yes=7,no=8,missing=7
			7:leaf=-0.00499999989
			8:leaf=-0.000588562631
		4:leaf=0.00499999989
booster[158]:
0:[register_time_diff_sparse<1.5] yes=1,no=2,missing=1
	1:[mile_diff_sparse<1.5] yes=5,no=6,missing=5
		5:[fuel_typep2<3] yes=13,no=14,missing=13
			13:leaf=-0.00499999989
			14:leaf=-0.00174505776
		6:[register_time_diff_sparse<0.25] yes=11,no=12,missing=11
			11:leaf=-0.00187133648
			12:leaf=0.00176093052
	2:[mile_diff_rate_sparse<0.75] yes=3,no=4,missing=3
		3:[displacement_standard1<2] yes=7,no=8,missing=7
			7:leaf=-0.00499999989
			8:leaf=-0.000567438721
		4:[licensed_city_diff_sparse<0.25] yes=9,no=10,missing=9
			9:leaf=0.00127737119
			10:leaf=0.00499999989
booster[159]:
0:[fuel_typep1<1] yes=1,no=2,missing=1
	1:[mile_diff_sparse<1.5] yes=3,no=4,missing=3
		3:[displacement_standard1<5] yes=11,no=12,missing=11
			11:leaf=-0.00499999989
			12:leaf=-0.00142990635
		4:leaf=0.00499999989
	2:[mile_diff_rate_sparse<0.75] yes=5,no=6,missing=5
		5:[colorp1<2] yes=9,no=10,missing=9
			9:leaf=-0.00198838324
			10:leaf=-0.00499999989
		6:[licensed_city_diff_sparse<0.25] yes=7,no=8,missing=7
			7:leaf=-0.00137108052
			8:leaf=0.00499999989
booster[160]:
0:[fuel_typep1<1] yes=1,no=2,missing=1
	1:[mile_diff_sparse<1.5] yes=3,no=4,missing=3
		3:[displacement_standard1<5] yes=11,no=12,missing=11
			11:leaf=-0.00499999989
			12:leaf=-0.00193972641
		4:leaf=0.00499999989
	2:[mile_diff_rate_sparse<0.75] yes=5,no=6,missing=5
		5:[transfer_times_diff_sparse<2] yes=9,no=10,missing=9
			9:leaf=-0.00499999989
			10:leaf=-0.00303106336
		6:[licensed_city_diff_sparse<0.25] yes=7,no=8,missing=7
			7:leaf=-0.000458874943
			8:leaf=0.00499999989
booster[161]:
0:[register_time_diff_sparse<1.5] yes=1,no=2,missing=1
	1:[mile_diff_rate_sparse<1.5] yes=5,no=6,missing=5
		5:leaf=-0.00499999989
		6:[register_time_diff_sparse<0.25] yes=11,no=12,missing=11
			11:leaf=-0.0015597163
			12:leaf=0.00173910207
	2:[mile_diff_rate_sparse<0.75] yes=3,no=4,missing=3
		3:[fuel_typep1<1] yes=7,no=8,missing=7
			7:leaf=-0.00499999989
			8:leaf=-0.000433718669
		4:[licensed_city_diff_sparse<0.25] yes=9,no=10,missing=9
			9:leaf=0.0012804725
			10:leaf=0.00499999989
booster[162]:
0:[register_time_diff_sparse<1.5] yes=1,no=2,missing=1
	1:[mile_diff_rate_sparse<1.5] yes=7,no=8,missing=7
		7:leaf=-0.00499999989
		8:[register_time_diff_sparse<0.25] yes=11,no=12,missing=11
			11:leaf=-0.00221217447
			12:leaf=0.000996734132
	2:[mile_diff_rate_sparse<0.75] yes=3,no=4,missing=3
		3:[title_diff_sparse<1.5] yes=5,no=6,missing=5
			5:leaf=-0.00499999989
			6:leaf=-4.80960734e-05
		4:[licensed_city_diff_sparse<0.25] yes=9,no=10,missing=9
			9:leaf=0.000928975409
			10:leaf=0.00499999989
booster[163]:
0:[register_time_diff_sparse<1.5] yes=1,no=2,missing=1
	1:[mile_diff_sparse<1.5] yes=5,no=6,missing=5
		5:leaf=-0.00499999989
		6:[register_time_diff_sparse<0.25] yes=9,no=10,missing=9
			9:leaf=-0.00321912393
			10:leaf=0.00173888542
	2:[mile_diff_rate_sparse<0.75] yes=3,no=4,missing=3
		3:[displacement_standard1<1] yes=7,no=8,missing=7
			7:leaf=-0.00499999989
			8:leaf=-0.000894363038
		4:[displacement_diff_sparse<0.25] yes=11,no=12,missing=11
			11:leaf=0.0017624466
			12:leaf=0.00499999989
booster[164]:
0:[register_time_diff_sparse<1.5] yes=1,no=2,missing=1
	1:[mile_diff_sparse<1.5] yes=7,no=8,missing=7
		7:[fuel_typep2<6] yes=13,no=14,missing=13
			13:leaf=-0.00499999989
			14:leaf=-0.00173577503
		8:[register_time_diff_sparse<0.25] yes=11,no=12,missing=11
			11:leaf=-0.00187625375
			12:leaf=0.000546521856
	2:[mile_diff_rate_sparse<0.75] yes=3,no=4,missing=3
		3:[displacement_standard1<1] yes=5,no=6,missing=5
			5:leaf=-0.00499999989
			6:leaf=-0.000544785929
		4:[licensed_city_diff_sparse<0.25] yes=9,no=10,missing=9
			9:leaf=0.00125023723
			10:leaf=0.00499999989
booster[165]:
0:[register_time_diff_sparse<1.5] yes=1,no=2,missing=1
	1:[mile_diff_sparse<1.5] yes=5,no=6,missing=5
		5:leaf=-0.00499999989
		6:[register_time_diff_sparse<0.25] yes=9,no=10,missing=9
			9:leaf=-0.00218627951
			10:leaf=0.00126348657
	2:[mile_diff_rate_sparse<0.75] yes=3,no=4,missing=3
		3:[fuel_typep1<1] yes=7,no=8,missing=7
			7:leaf=-0.00499999989
			8:leaf=-0.000117875621
		4:leaf=0.00499999989
booster[166]:
0:[register_time_diff_sparse<1.5] yes=1,no=2,missing=1
	1:[mile_diff_sparse<1.5] yes=5,no=6,missing=5
		5:[fuel_typep2<3] yes=13,no=14,missing=13
			13:leaf=-0.00499999989
			14:leaf=-0.00171575067
		6:[colorp1<9] yes=11,no=12,missing=11
			11:leaf=0.000931383518
			12:leaf=-0.00249096705
	2:[mile_diff_rate_sparse<0.75] yes=3,no=4,missing=3
		3:[fuel_typep1<1] yes=7,no=8,missing=7
			7:leaf=-0.00499999989
			8:leaf=-0.000143775804
		4:[licensed_city_diff_sparse<0.25] yes=9,no=10,missing=9
			9:leaf=0.00103390962
			10:leaf=0.00499999989
booster[167]:
0:[register_time_diff_sparse<1.5] yes=1,no=2,missing=1
	1:[mile_diff_sparse<1.5] yes=7,no=8,missing=7
		7:[fuel_typep2<3] yes=13,no=14,missing=13
			13:leaf=-0.00499999989
			14:leaf=-0.00169473479
		8:[register_time_diff_sparse<0.25] yes=11,no=12,missing=11
			11:leaf=-0.00153584266
			12:leaf=0.000975811563
	2:[mile_diff_rate_sparse<0.75] yes=3,no=4,missing=3
		3:[fuel_typep1<1] yes=5,no=6,missing=5
			5:leaf=-0.00499999989
			6:leaf=0.00013531046
		4:[licensed_city_diff_sparse<0.25] yes=9,no=10,missing=9
			9:leaf=0.000963088823
			10:leaf=0.00499999989
booster[168]:
0:[register_time_diff_sparse<1.5] yes=1,no=2,missing=1
	1:[mile_diff_sparse<1.5] yes=7,no=8,missing=7
		7:leaf=-0.00499999989
		8:[register_time_diff_sparse<0.25] yes=11,no=12,missing=11
			11:leaf=-0.00217149523
			12:leaf=0.00143170438
	2:[mile_diff_rate_sparse<0.75] yes=3,no=4,missing=3
		3:[fuel_typep1<1] yes=5,no=6,missing=5
			5:leaf=-0.00499999989
			6:leaf=0.000253122766
		4:[licensed_city_diff_sparse<0.25] yes=9,no=10,missing=9
			9:leaf=0.000534039456
			10:leaf=0.00499999989
booster[169]:
0:[register_time_diff_sparse<1.5] yes=1,no=2,missing=1
	1:[mile_diff_sparse<1.5] yes=7,no=8,missing=7
		7:leaf=-0.00499999989
		8:[register_time_diff_sparse<0.25] yes=11,no=12,missing=11
			11:leaf=-0.00185882731
			12:leaf=0.0002414599
	2:[mile_diff_sparse<0.75] yes=3,no=4,missing=3
		3:[displacement_standard2<3] yes=9,no=10,missing=9
			9:leaf=-0.00483927643
			10:leaf=0.000358329591
		4:[licensed_city_diff_sparse<0.25] yes=5,no=6,missing=5
			5:leaf=-0.000522002811
			6:leaf=0.00499999989
booster[170]:
0:[register_time_diff_sparse<1.5] yes=1,no=2,missing=1
	1:[mile_diff_sparse<1.5] yes=9,no=10,missing=9
		9:[fuel_typep2<3] yes=13,no=14,missing=13
			13:leaf=-0.00499999989
			14:leaf=-0.0019230172
		10:[register_time_diff_sparse<0.25] yes=11,no=12,missing=11
			11:leaf=-0.00277095521
			12:leaf=0.000524302479
	2:[mile_diff_rate_sparse<0.75] yes=3,no=4,missing=3
		3:[fuel_typep1<1] yes=5,no=6,missing=5
			5:leaf=-0.00499999989
			6:leaf=-0.00029196433
		4:[licensed_city_diff_sparse<0.25] yes=7,no=8,missing=7
			7:leaf=0.000790247926
			8:leaf=0.00499999989
booster[171]:
0:[register_time_diff_sparse<1.5] yes=1,no=2,missing=1
	1:[mile_diff_sparse<1.5] yes=5,no=6,missing=5
		5:[fuel_typep2<6] yes=13,no=14,missing=13
			13:leaf=-0.00499999989
			14:leaf=-0.00166910735
		6:[register_time_diff_sparse<0.25] yes=11,no=12,missing=11
			11:leaf=-0.00153785478
			12:leaf=0.000668860564
	2:[mile_diff_rate_sparse<0.75] yes=3,no=4,missing=3
		3:[fuel_typep1<1] yes=7,no=8,missing=7
			7:leaf=-0.00499999989
			8:leaf=-0.000350111106
		4:[licensed_city_diff_sparse<0.25] yes=9,no=10,missing=9
			9:leaf=0.00121186604
			10:leaf=0.00499999989
booster[172]:
0:[register_time_diff_sparse<1.5] yes=1,no=2,missing=1
	1:[mile_diff_rate_sparse<1.5] yes=7,no=8,missing=7
		7:[fuel_typep2<6] yes=13,no=14,missing=13
			13:leaf=-0.00499999989
			14:leaf=-0.00166406797
		8:[register_time_diff_sparse<0.25] yes=11,no=12,missing=11
			11:leaf=-0.00390976295
			12:leaf=0.000520223344
	2:[mile_diff_rate_sparse<0.75] yes=3,no=4,missing=3
		3:[fuel_typep1<1] yes=5,no=6,missing=5
			5:leaf=-0.00499999989
			6:leaf=-1.25625229e-05
		4:[licensed_city_diff_sparse<0.25] yes=9,no=10,missing=9
			9:leaf=0.00191814662
			10:leaf=0.00499999989
booster[173]:
0:[register_time_diff_sparse<1.5] yes=1,no=2,missing=1
	1:[mile_diff_sparse<1.5] yes=9,no=10,missing=9
		9:leaf=-0.00499999989
		10:[title_diff_sparse<1.5] yes=11,no=12,missing=11
			11:leaf=-0.00216412265
			12:leaf=-0.00011881681
	2:[mile_diff_sparse<0.75] yes=3,no=4,missing=3
		3:[fuel_typep2<1] yes=7,no=8,missing=7
			7:leaf=-0.00499999989
			8:leaf=-0.000419810589
		4:[licensed_city_diff_sparse<0.25] yes=5,no=6,missing=5
			5:leaf=2.56144608e-06
			6:leaf=0.00499999989
booster[174]:
0:[register_time_diff_sparse<1.5] yes=1,no=2,missing=1
	1:[mile_diff_sparse<1.5] yes=5,no=6,missing=5
		5:[fuel_typep2<6] yes=13,no=14,missing=13
			13:leaf=-0.00499999989
			14:leaf=-0.00164395105
		6:[register_time_diff_sparse<0.25] yes=11,no=12,missing=11
			11:leaf=-0.00146870094
			12:leaf=0.00194044679
	2:[mile_diff_rate_sparse<0.75] yes=3,no=4,missing=3
		3:[fuel_typep1<1] yes=7,no=8,missing=7
			7:leaf=-0.00499999989
			8:leaf=-0.000510488753
		4:[licensed_city_diff_sparse<0.25] yes=9,no=10,missing=9
			9:leaf=0.00162391679
			10:leaf=0.00499999989
booster[175]:
0:[register_time_diff_sparse<1.5] yes=1,no=2,missing=1
	1:[mile_diff_rate_sparse<1.5] yes=7,no=8,missing=7
		7:leaf=-0.00499999989
		8:[register_time_diff_sparse<0.25] yes=11,no=12,missing=11
			11:leaf=-0.00214952417
			12:leaf=0.000667994027
	2:[mile_diff_rate_sparse<0.75] yes=3,no=4,missing=3
		3:[fuel_typep1<1] yes=5,no=6,missing=5
			5:leaf=-0.00499999989
			6:leaf=-0
		4:[licensed_city_diff_sparse<0.25] yes=9,no=10,missing=9
			9:leaf=0.0015127887
			10:leaf=0.00499999989
booster[176]:
0:[register_time_diff_sparse<1.5] yes=1,no=2,missing=1
	1:[mile_diff_sparse<1.5] yes=5,no=6,missing=5
		5:[fuel_typep2<3] yes=13,no=14,missing=13
			13:leaf=-0.00499999989
			14:leaf=-0.00164919265
		6:[register_time_diff_sparse<0.25] yes=9,no=10,missing=9
			9:leaf=-0.0021120084
			10:leaf=0.00193069375
	2:[mile_diff_sparse<0.75] yes=3,no=4,missing=3
		3:[title_diff_sparse<1.5] yes=7,no=8,missing=7
			7:leaf=-0.00499999989
			8:leaf=-0.000860680826
		4:[displacement_diff_sparse<0.25] yes=11,no=12,missing=11
			11:leaf=0.00132809696
			12:leaf=0.00499999989
booster[177]:
0:[fuel_typep1<1] yes=1,no=2,missing=1
	1:[mile_diff_sparse<1.5] yes=3,no=4,missing=3
		3:[displacement_standard1<5] yes=11,no=12,missing=11
			11:leaf=-0.00499999989
			12:leaf=-0.00191903545
		4:leaf=0.00499999989
	2:[mile_diff_rate_sparse<0.75] yes=5,no=6,missing=5
		5:[colorp1<2] yes=9,no=10,missing=9
			9:leaf=-0.00217462564
			10:leaf=-0.00499999989
		6:[licensed_city_diff_sparse<0.25] yes=7,no=8,missing=7
			7:leaf=-0.00118000293
			8:leaf=0.00499999989
booster[178]:
0:[register_time_diff_sparse<1.5] yes=1,no=2,missing=1
	1:[mile_diff_sparse<1.5] yes=7,no=8,missing=7
		7:[fuel_typep2<3] yes=13,no=14,missing=13
			13:leaf=-0.00499999989
			14:leaf=-0.00165836117
		8:[register_time_diff_sparse<0.25] yes=11,no=12,missing=11
			11:leaf=-0.00274542929
			12:leaf=0.0007710926
	2:[mile_diff_rate_sparse<0.75] yes=3,no=4,missing=3
		3:[fuel_typep1<1] yes=5,no=6,missing=5
			5:leaf=-0.00499999989
			6:leaf=-8.33097729e-05
		4:[licensed_city_diff_sparse<0.25] yes=9,no=10,missing=9
			9:leaf=0.000903975626
			10:leaf=0.00499999989
booster[179]:
0:[register_time_diff_sparse<1.5] yes=1,no=2,missing=1
	1:[mile_diff_sparse<1.5] yes=5,no=6,missing=5
		5:[fuel_typep2<6] yes=13,no=14,missing=13
			13:leaf=-0.00499999989
			14:leaf=-0.00161662779
		6:[register_time_diff_sparse<0.25] yes=11,no=12,missing=11
			11:leaf=-0.00180647045
			12:leaf=0.0011908866
	2:[mile_diff_sparse<0.75] yes=3,no=4,missing=3
		3:[fuel_typep1<1] yes=9,no=10,missing=9
			9:leaf=-0.00499999989
			10:leaf=-0.000378890079
		4:[licensed_city_diff_sparse<0.25] yes=7,no=8,missing=7
			7:leaf=0.000349755341
			8:leaf=0.00499999989
booster[180]:
0:[register_time_diff_sparse<1.5] yes=1,no=2,missing=1
	1:[mile_diff_sparse<1.5] yes=7,no=8,missing=7
		7:[fuel_typep2<6] yes=13,no=14,missing=13
			13:leaf=-0.00499999989
			14:leaf=-0.00161175011
		8:[register_time_diff_sparse<0.25] yes=11,no=12,missing=11
			11:leaf=-0.00271347701
			12:leaf=0.000764470315
	2:[mile_diff_rate_sparse<0.75] yes=3,no=4,missing=3
		3:[fuel_typep1<1] yes=5,no=6,missing=5
			5:leaf=-0.00499999989
			6:leaf=-0.000718579744
		4:[licensed_city_diff_sparse<0.25] yes=9,no=10,missing=9
			9:leaf=0.00147755048
			10:leaf=0.00499999989
booster[181]:
0:[register_time_diff_sparse<1.5] yes=1,no=2,missing=1
	1:[mile_diff_sparse<1.5] yes=5,no=6,missing=5
		5:[fuel_typep2<3] yes=13,no=14,missing=13
			13:leaf=-0.00499999989
			14:leaf=-0.00184695749
		6:[displacement_standard2<3] yes=11,no=12,missing=11
			11:leaf=0.00186487986
			12:leaf=-0.000948105066
	2:[mile_diff_rate_sparse<0.75] yes=3,no=4,missing=3
		3:[displacement_standard1<1] yes=7,no=8,missing=7
			7:leaf=-0.00499999989
			8:leaf=-0.000487209996
		4:[licensed_city_diff_sparse<0.25] yes=9,no=10,missing=9
			9:leaf=0.00108682201
			10:leaf=0.00499999989
booster[182]:
0:[register_time_diff_sparse<1.5] yes=1,no=2,missing=1
	1:[mile_diff_sparse<1.5] yes=7,no=8,missing=7
		7:[fuel_typep2<6] yes=11,no=12,missing=11
			11:leaf=-0.00499999989
			12:leaf=-0.0016013151
		8:[register_time_diff_sparse<0.25] yes=9,no=10,missing=9
			9:leaf=-0.0021008586
			10:leaf=0.000923929329
	2:[mile_diff_rate_sparse<0.75] yes=3,no=4,missing=3
		3:[fuel_typep1<1] yes=5,no=6,missing=5
			5:leaf=-0.00499999989
			6:leaf=-0
		4:leaf=0.00499999989
booster[183]:
0:[fuel_typep1<1] yes=1,no=2,missing=1
	1:[mile_diff_sparse<1.5] yes=3,no=4,missing=3
		3:leaf=-0.00499999989
		4:leaf=0.00499999989
	2:[mile_diff_rate_sparse<0.75] yes=5,no=6,missing=5
		5:[colorp1<2] yes=9,no=10,missing=9
			9:leaf=-0.00181870721
			10:leaf=-0.00499682594
		6:[transfer_times_diff_sparse<2] yes=7,no=8,missing=7
			7:leaf=0.00203991495
			8:leaf=0.00499999989
booster[184]:
0:[register_time_diff_sparse<1.5] yes=1,no=2,missing=1
	1:[mile_diff_sparse<1.5] yes=9,no=10,missing=9
		9:[fuel_typep2<3] yes=13,no=14,missing=13
			13:leaf=-0.00499999989
			14:leaf=-0.00164175243
		10:[register_time_diff_sparse<0.25] yes=11,no=12,missing=11
			11:leaf=-0.00241109286
			12:leaf=0.000155258051
	2:[mile_diff_rate_sparse<0.75] yes=3,no=4,missing=3
		3:[fuel_typep1<1] yes=5,no=6,missing=5
			5:leaf=-0.00499999989
			6:leaf=-0
		4:[licensed_city_diff_sparse<0.25] yes=7,no=8,missing=7
			7:leaf=0.000620800303
			8:leaf=0.00499999989
booster[185]:
0:[register_time_diff_sparse<1.5] yes=1,no=2,missing=1
	1:[mile_diff_sparse<1.5] yes=5,no=6,missing=5
		5:[fuel_typep2<3] yes=11,no=12,missing=11
			11:leaf=-0.00499999989
			12:leaf=-0.00154331874
		6:[colorp1<8] yes=9,no=10,missing=9
			9:leaf=0.000744951656
			10:leaf=-0.00248511881
	2:[mile_diff_rate_sparse<0.75] yes=3,no=4,missing=3
		3:[displacement_standard1<1] yes=7,no=8,missing=7
			7:leaf=-0.00499999989
			8:leaf=-0.000335044606
		4:leaf=0.00499999989
booster[186]:
0:[fuel_typep1<1] yes=1,no=2,missing=1
	1:[mile_diff_sparse<1.5] yes=3,no=4,missing=3
		3:[displacement_standard1<5] yes=11,no=12,missing=11
			11:leaf=-0.00499999989
			12:leaf=-0.00179376034
		4:leaf=0.00499999989
	2:[mile_diff_rate_sparse<0.75] yes=5,no=6,missing=5
		5:[colorp1<2] yes=9,no=10,missing=9
			9:leaf=-0.00165875966
			10:leaf=-0.00471867295
		6:[licensed_city_diff_sparse<0.25] yes=7,no=8,missing=7
			7:leaf=-0.000612035103
			8:leaf=0.00499999989
booster[187]:
0:[fuel_typep1<1] yes=1,no=2,missing=1
	1:[mile_diff_sparse<1.5] yes=3,no=4,missing=3
		3:[displacement_standard1<5] yes=11,no=12,missing=11
			11:leaf=-0.00499999989
			12:leaf=-0.00178839976
		4:leaf=0.00499999989
	2:[mile_diff_rate_sparse<0.75] yes=5,no=6,missing=5
		5:[transfer_times_diff_sparse<2] yes=9,no=10,missing=9
			9:leaf=-0.00499999989
			10:leaf=-0.0028064081
		6:[licensed_city_diff_sparse<0.25] yes=7,no=8,missing=7
			7:leaf=-0.00137304305
			8:leaf=0.00499999989
booster[188]:
0:[register_time_diff_sparse<1.5] yes=1,no=2,missing=1
	1:[mile_diff_rate_sparse<1.5] yes=7,no=8,missing=7
		7:leaf=-0.00499999989
		8:[register_time_diff_sparse<0.25] yes=11,no=12,missing=11
			11:leaf=-0.00244546239
			12:leaf=0.00111842412
	2:[mile_diff_rate_sparse<0.75] yes=3,no=4,missing=3
		3:[fuel_typep1<1] yes=5,no=6,missing=5
			5:leaf=-0.00499999989
			6:leaf=0.000183712633
		4:[licensed_city_diff_sparse<0.25] yes=9,no=10,missing=9
			9:leaf=0.000519060704
			10:leaf=0.00499999989
booster[189]:
0:[register_time_diff_sparse<1.5] yes=1,no=2,missing=1
	1:[mile_diff_sparse<1.5] yes=7,no=8,missing=7
		7:[fuel_typep2<6] yes=13,no=14,missing=13
			13:leaf=-0.00499999989
			14:leaf=-0.00158135302
		8:[register_time_diff_sparse<0.25] yes=11,no=12,missing=11
			11:leaf=-0.00173174916
			12:leaf=0.00113412819
	2:[mile_diff_rate_sparse<0.75] yes=3,no=4,missing=3
		3:[fuel_typep1<1] yes=5,no=6,missing=5
			5:leaf=-0.00499999989
			6:leaf=0.00018849851
		4:[licensed_city_diff_sparse<0.25] yes=9,no=10,missing=9
			9:leaf=0.00121554476
			10:leaf=0.00499999989
booster[190]:
0:[register_time_diff_sparse<1.5] yes=1,no=2,missing=1
	1:[mile_diff_sparse<1.5] yes=5,no=6,missing=5
		5:[fuel_typep2<6] yes=11,no=12,missing=11
			11:leaf=-0.00499999989
			12:leaf=-0.00157658383
		6:[title_diff_sparse<1.5] yes=13,no=14,missing=13
			13:leaf=-0.000525001436
			14:leaf=0.000907110982
	2:[mile_diff_rate_sparse<0.75] yes=3,no=4,missing=3
		3:[fuel_typep1<1] yes=7,no=8,missing=7
			7:leaf=-0.00499999989
			8:leaf=-5.63717767e-05
		4:[licensed_city_diff_sparse<0.25] yes=9,no=10,missing=9
			9:leaf=0.00109643093
			10:leaf=0.00499999989
booster[191]:
0:[register_time_diff_sparse<1.5] yes=1,no=2,missing=1
	1:[mile_diff_sparse<1.5] yes=7,no=8,missing=7
		7:leaf=-0.00499999989
		8:[colorp1<8] yes=11,no=12,missing=11
			11:leaf=0.000615081284
			12:leaf=-0.00250599883
	2:[mile_diff_sparse<0.75] yes=3,no=4,missing=3
		3:[fuel_typep1<1] yes=9,no=10,missing=9
			9:leaf=-0.00499999989
			10:leaf=-0.0005289283
		4:[licensed_city_diff_sparse<0.25] yes=5,no=6,missing=5
			5:leaf=0.000165898513
			6:leaf=0.00499999989
booster[192]:
0:[register_time_diff_sparse<1.5] yes=1,no=2,missing=1
	1:[mile_diff_sparse<1.5] yes=7,no=8,missing=7
		7:leaf=-0.00499999989
		8:[colorp1<7] yes=11,no=12,missing=11
			11:leaf=0.00102871354
			12:leaf=-0.00206060545
	2:[mile_diff_rate_sparse<0.75] yes=3,no=4,missing=3
		3:[fuel_typep2<1] yes=5,no=6,missing=5
			5:leaf=-0.00499999989
			6:leaf=1.85791905e-05
		4:[licensed_city_diff_sparse<0.25] yes=9,no=10,missing=9
			9:leaf=0.0008538806
			10:leaf=0.00499999989
booster[193]:
0:[register_time_diff_sparse<1.5] yes=1,no=2,missing=1
	1:[mile_diff_sparse<1.5] yes=9,no=10,missing=9
		9:leaf=-0.00499999989
		10:[register_time_diff_sparse<0.25] yes=11,no=12,missing=11
			11:leaf=-0.00282238587
			12:leaf=0.000695087539
	2:[mile_diff_rate_sparse<0.75] yes=3,no=4,missing=3
		3:[fuel_typep1<1] yes=7,no=8,missing=7
			7:leaf=-0.00499999989
			8:leaf=-0.000333632226
		4:[licensed_city_diff_sparse<0.25] yes=5,no=6,missing=5
			5:leaf=0.000420060358
			6:leaf=0.00499999989
booster[194]:
0:[register_time_diff_sparse<1.5] yes=1,no=2,missing=1
	1:[mile_diff_sparse<1.5] yes=7,no=8,missing=7
		7:[fuel_typep2<3] yes=13,no=14,missing=13
			13:leaf=-0.00499999989
			14:leaf=-0.001570508
		8:[register_time_diff_sparse<0.25] yes=11,no=12,missing=11
			11:leaf=-0.00209783763
			12:leaf=0.00160017668
	2:[mile_diff_sparse<0.75] yes=3,no=4,missing=3
		3:[fuel_typep1<1] yes=9,no=10,missing=9
			9:leaf=-0.00499999989
			10:leaf=-0.000568193966
		4:[licensed_city_diff_sparse<0.25] yes=5,no=6,missing=5
			5:leaf=-8.18757253e-05
			6:leaf=0.00499999989
booster[195]:
0:[register_time_diff_sparse<1.5] yes=1,no=2,missing=1
	1:[mile_diff_sparse<1.5] yes=7,no=8,missing=7
		7:[fuel_typep2<3] yes=13,no=14,missing=13
			13:leaf=-0.00499999989
			14:leaf=-0.00178675738
		8:[register_time_diff_sparse<0.25] yes=11,no=12,missing=11
			11:leaf=-0.00242908671
			12:leaf=0.000937808305
	2:[mile_diff_rate_sparse<0.75] yes=3,no=4,missing=3
		3:[fuel_typep1<1] yes=5,no=6,missing=5
			5:leaf=-0.00499999989
			6:leaf=0.000308546907
		4:[licensed_city_diff_sparse<0.25] yes=9,no=10,missing=9
			9:leaf=0.000930848299
			10:leaf=0.00499999989
booster[196]:
0:[register_time_diff_sparse<1.5] yes=1,no=2,missing=1
	1:[mile_diff_sparse<1.5] yes=9,no=10,missing=9
		9:[fuel_typep2<3] yes=13,no=14,missing=13
			13:leaf=-0.00499999989
			14:leaf=-0.00151539536
		10:[colorp1<9] yes=11,no=12,missing=11
			11:leaf=0.000442049641
			12:leaf=-0.00247304095
	2:[mile_diff_rate_sparse<0.75] yes=3,no=4,missing=3
		3:[title_diff_sparse<1.5] yes=5,no=6,missing=5
			5:leaf=-0.00491955131
			6:leaf=0.000549981894
		4:[licensed_city_diff_sparse<0.25] yes=7,no=8,missing=7
			7:leaf=0.000400457298
			8:leaf=0.00499999989
booster[197]:
0:[register_time_diff_sparse<1.5] yes=1,no=2,missing=1
	1:[mile_diff_sparse<1.5] yes=7,no=8,missing=7
		7:leaf=-0.00499999989
		8:[register_time_diff_sparse<0.25] yes=11,no=12,missing=11
			11:leaf=-0.0023984611
			12:leaf=0.0011174879
	2:[mile_diff_rate_sparse<0.75] yes=3,no=4,missing=3
		3:[fuel_typep1<1] yes=5,no=6,missing=5
			5:leaf=-0.00499999989
			6:leaf=-2.64809878e-05
		4:[licensed_city_diff_sparse<0.25] yes=9,no=10,missing=9
			9:leaf=0.00104201795
			10:leaf=0.00499999989
booster[198]:
0:[register_time_diff_sparse<1.5] yes=1,no=2,missing=1
	1:[mile_diff_sparse<1.5] yes=9,no=10,missing=9
		9:leaf=-0.00499999989
		10:[colorp1<7] yes=11,no=12,missing=11
			11:leaf=0.000176620641
			12:leaf=-0.00162187987
	2:[mile_diff_rate_sparse<0.75] yes=3,no=4,missing=3
		3:[fuel_typep1<1] yes=5,no=6,missing=5
			5:leaf=-0.00499999989
			6:leaf=4.68541912e-05
		4:[licensed_city_diff_sparse<0.25] yes=7,no=8,missing=7
			7:leaf=0.00049085205
			8:leaf=0.00499999989
booster[199]:
0:[register_time_diff_sparse<1.5] yes=1,no=2,missing=1
	1:[mile_diff_sparse<1.5] yes=5,no=6,missing=5
		5:[fuel_typep2<3] yes=13,no=14,missing=13
			13:leaf=-0.00499999989
			14:leaf=-0.00172006525
		6:[colorp2<7] yes=11,no=12,missing=11
			11:leaf=0.00151716394
			12:leaf=-0.000918517064
	2:[mile_diff_rate_sparse<0.75] yes=3,no=4,missing=3
		3:[fuel_typep1<1] yes=9,no=10,missing=9
			9:leaf=-0.00499999989
			10:leaf=-0.000636523182
		4:[licensed_city_diff_sparse<0.25] yes=7,no=8,missing=7
			7:leaf=0.000807569886
			8:leaf=0.00499999989
booster[200]:
0:[register_time_diff_sparse<1.5] yes=1,no=2,missing=1
	1:[mile_diff_sparse<1.5] yes=7,no=8,missing=7
		7:[fuel_typep2<6] yes=13,no=14,missing=13
			13:leaf=-0.00499999989
			14:leaf=-0.00147658761
		8:[colorp1<7] yes=11,no=12,missing=11
			11:leaf=0.00146562047
			12:leaf=-0.0017558909
	2:[mile_diff_rate_sparse<0.75] yes=3,no=4,missing=3
		3:[displacement_standard1<1] yes=9,no=10,missing=9
			9:leaf=-0.00499999989
			10:leaf=-0.000233706625
		4:[licensed_city_diff_sparse<0.25] yes=5,no=6,missing=5
			5:leaf=0.000219378882
			6:leaf=0.00499999989
booster[201]:
0:[register_time_diff_sparse<1.5] yes=1,no=2,missing=1
	1:[mile_diff_sparse<1.5] yes=7,no=8,missing=7
		7:[fuel_typep2<3] yes=13,no=14,missing=13
			13:leaf=-0.00499999989
			14:leaf=-0.00174991542
		8:[register_time_diff_sparse<0.25] yes=11,no=12,missing=11
			11:leaf=-0.00176687585
			12:leaf=0.000829091645
	2:[mile_diff_rate_sparse<0.75] yes=3,no=4,missing=3
		3:[fuel_typep1<1] yes=9,no=10,missing=9
			9:leaf=-0.00499999989
			10:leaf=-0.00013438375
		4:[licensed_city_diff_sparse<0.25] yes=5,no=6,missing=5
			5:leaf=0.000273736019
			6:leaf=0.00499999989
booster[202]:
0:[register_time_diff_sparse<1.5] yes=1,no=2,missing=1
	1:[mile_diff_sparse<1.5] yes=7,no=8,missing=7
		7:leaf=-0.00499999989
		8:[colorp1<9] yes=11,no=12,missing=11
			11:leaf=0.000690285931
			12:leaf=-0.00244863867
	2:[mile_diff_rate_sparse<0.75] yes=3,no=4,missing=3
		3:[fuel_typep1<1] yes=9,no=10,missing=9
			9:leaf=-0.00499999989
			10:leaf=-0.000614761375
		4:[licensed_city_diff_sparse<0.25] yes=5,no=6,missing=5
			5:leaf=0.000720588549
			6:leaf=0.00499999989
booster[203]:
0:[register_time_diff_sparse<1.5] yes=1,no=2,missing=1
	1:[mile_diff_sparse<1.5] yes=9,no=10,missing=9
		9:[fuel_typep2<6] yes=13,no=14,missing=13
			13:leaf=-0.00499999989
			14:leaf=-0.00145179487
		10:[register_time_diff_sparse<0.25] yes=11,no=12,missing=11
			11:leaf=-0.00309873489
			12:leaf=0.00040114313
	2:[mile_diff_rate_sparse<0.75] yes=3,no=4,missing=3
		3:[fuel_typep1<1] yes=7,no=8,missing=7
			7:leaf=-0.00499999989
			8:leaf=-0.000737814116
		4:[licensed_city_diff_sparse<0.25] yes=5,no=6,missing=5
			5:leaf=0.000553808408
			6:leaf=0.00499999989
booster[204]:
0:[displacement_standard1<1] yes=1,no=2,missing=1
	1:[mile_diff_sparse<1.5] yes=3,no=4,missing=3
		3:leaf=-0.00499999989
		4:leaf=0.00499999989
	2:[mile_diff_rate_sparse<0.75] yes=5,no=6,missing=5
		5:[licensed_city_diff_sparse<1.25] yes=9,no=10,missing=9
			9:leaf=-0.00499999989
